solver_type L2R_LR
nr_class 2
label 1 0
nr_feature 1400
bias -1
w
-0.2320421129771048 
0.02510133377671194 
0.1744711014533549 
0.07894875245937903 
-0.1334546400395253 
0.2506201896741473 
-0.05730336073453553 
-0.0621579717377413 
0.01223814728087819 
-0.1098106738600342 
0.1192149397171022 
-0.06520880495739713 
0.07286257540051462 
-0.1686218553979226 
-0.04794185100184681 
0.07245997272947466 
0.07437145245350948 
-0.1183822704524896 
0.03782363731012135 
0.137554003334164 
-0.1139118628627516 
0.05149440235602319 
-0.114711276376904 
-0.2144852404917649 
0.07874657877161086 
0.05916855828448649 
0.1375798060134661 
0.0125667800382043 
0.1126839859932681 
0.1648811133387106 
-0.05564284940817778 
-0.08508361186245905 
0.03824217976989375 
0.2130513415459872 
-0.01765750122105073 
0.1393038420152715 
0.06732038960448251 
-0.1613773087265031 
-0.1953861937661928 
0.1780300190600581 
-0.3133528687866729 
0.0233722456591623 
0.04104373263565675 
-0.1522098430508017 
-0.01038950397534863 
-0.1237332422601017 
0.01465224075359348 
-0.1755385402582981 
-0.3409989457185868 
0.007147026191425113 
-0.1347106955214827 
0.04860517776970899 
-0.0006156400983685015 
0.05842050990761568 
-0.08262681238729971 
0.1405989795310114 
-0.01872534645117014 
-0.02723956150601302 
0.09523110649399724 
-0.0219211627398562 
0.04937183282254273 
0.01890284832377294 
0.01816199221030603 
0.04441272890628067 
-0.01675548417418622 
0.08444120160938726 
0.0123960936246455 
-0.0564109288292487 
0.02365244338040096 
0.1156987716293003 
-0.02844222310370644 
-0.003241320100587229 
-0.1359472540966334 
0.01004707530032392 
-0.04055188716436332 
0.02319534275479629 
0.06308522326671546 
0.1445268768811755 
0.09754174777512586 
0.09736132951310719 
-0.04359663663184105 
-0.1289859094149113 
-0.0118197094966646 
0.02570186622157148 
0.0002725277531177208 
0.07027556927520133 
0.1347380618123349 
-0.09466797945142683 
0.09036963177521701 
-0.0618846469319399 
-0.4415477393457831 
0.04542558305635482 
0.1599866125465287 
-0.03873253981121239 
0.006326954903334219 
-0.2940129575802442 
0.03463057822035986 
0.1775211061564177 
-0.205549962179514 
-0.0377021975394903 
0.1095176427611643 
0.1410533663565344 
-0.04766462186963452 
0.1979414842066821 
0.06491643936075342 
0.07903443787723408 
0.02553292951856615 
-0.08064179681597505 
-0.02945337192917708 
-0.05912776858201627 
0.05508068725299031 
0.08409520378016844 
-0.1107104710894504 
-0.192581979942912 
-0.06460192441234039 
0.02937932025507079 
0.05546166016511443 
-0.05433583987473289 
-0.03323175664495186 
0.03469985569374905 
-0.07332894165712861 
-0.004967624409297585 
0.05520084499365342 
-0.02573304918872569 
0.00140345848017386 
0.01269345104025372 
-0.005659988764714749 
0.2860649564604531 
-0.1212946296071435 
-0.01401836147702128 
-0.1361063279219244 
-0.02839281099004023 
0.1390772960626372 
-0.02557163116285733 
0.02564467445305483 
0.2738168762784898 
0.1967017909718519 
-0.04640947085054226 
-0.203927265691659 
-0.05647100373904648 
-0.3463867926250706 
-0.03679560013290851 
0.05034593162925185 
-0.1275142788461135 
0.07604460959665851 
0.02916242862021003 
0.03220968610913067 
0.02011347788747128 
-0.3472191749612497 
-0.01255145352645345 
0.02073544235865084 
-0.2096370828865894 
-0.1208424392223881 
0.1723990226911997 
0.09537359399532322 
-0.05320199896481945 
-0.1270654507111247 
-0.02343970293106151 
-0.1791508713082502 
-0.3028081370740811 
-0.04428889715858973 
0.08152740170144976 
0.1186411262466601 
-0.206706588543446 
-0.1239885883062754 
-0.1043048049361466 
-0.1263184414590375 
0.08419717112275026 
-0.008868767680211546 
0.09167038234263084 
-0.1207559377945775 
0.03753158774232417 
-0.1090920280929329 
0.04224291272985013 
-0.03344786068031413 
-0.1561423709620193 
0.06739691560138997 
0.2991709309710107 
0.09329297563228467 
-0.05931386696793812 
-0.1971251748917449 
0.1450942023861269 
0.0757658369919645 
0.05548339451666438 
0.03897136520471968 
0.1663083493778531 
0.3174152429778559 
0.02586873026503381 
-0.1195674367793345 
0.09621340825577124 
-0.1896274090823164 
0.102170698408463 
0.1151548880679454 
-0.07112043484160993 
0.08395779751323913 
0.07432660518264596 
0.1099961222213361 
0.07080039254034522 
-0.2482374743772988 
0.08150478500598944 
-0.3783872537407295 
-0.1113725908432363 
-0.08800215742598118 
0.2521435227493641 
-0.09520473397658594 
0.3375109581373898 
0.05660755404600518 
-0.164553702824636 
0.08123150035252259 
-0.3629999283761419 
-0.02390857208591746 
0.1252253839493984 
0.2952909479630815 
0.1588295313879783 
-0.181633318321583 
-0.05863425119246505 
-0.1135459283776043 
0.06544155670747485 
0.03711962415229998 
0.2829194335191658 
-0.4334801873971413 
0.04828423581928311 
-0.4333097346856422 
-0.2476952798217989 
0.0390565486243375 
-0.1608764596248881 
0.2897215868410874 
0.4244889051436466 
0.3642201093479255 
0.1628756793542124 
-0.06150983033555611 
-0.1476987968638058 
0.01979060482409828 
0.2616152434694375 
-0.02621556636183205 
0.4488361389850685 
0.2536406369471085 
-0.3890612143987187 
-0.2608215186775211 
0.0114653906329572 
-0.4552337636682431 
0.1689082455510743 
0.3664623567601923 
-0.210088037676424 
-0.01442372303268907 
-0.2969911634348301 
0.1661652893021956 
0.006763074728609367 
-0.3520465170420884 
0.02782306490495552 
-0.985657886713962 
-0.7632170540134617 
0.4508412683738501 
0.1638427356746692 
-0.5175384504421884 
1.187528345237951 
0.1287473133470595 
0.1653514509791647 
0.9516512902886514 
-0.09040122278521076 
-0.1688563450093954 
-0.2065591103678451 
0.8634209014178568 
0.4752354702590065 
-0.3174153080582247 
-0.1543110761438242 
-0.330430939754262 
-0.06693338846957625 
0.3373823362545561 
0.7927971237791362 
-0.4347517986960924 
0.2541352796589344 
-1.139920871951743 
-0.3991935168586969 
-0.05243227840197377 
-0.131081720353459 
0.8074409894731777 
0.4353995989247388 
1.259592716467714 
0.6556468245243292 
-0.07525607074895871 
-0.4614170734257034 
-0.5947651151755375 
0.3647559717153235 
-0.1345971839953424 
0.5195209773443851 
0.5535725262160619 
-0.9740154859241394 
-0.278377041871665 
0.07826898690542983 
-0.9990336740444837 
0.5284962148590855 
0.6141567073376148 
0.2184658985000355 
-0.4132664204802085 
-0.9238789061551715 
0.115814617393681 
0.008936204928897518 
-0.331641794817642 
0.5517702272925485 
-0.599685238371977 
-0.7038765786451612 
0.6470334818194273 
0.6427188847899716 
-0.4758150606365734 
1.172216533088712 
0.1914349599300131 
-0.08938163095562592 
0.3045427031119486 
0.06289297428073543 
0.02467081702852467 
-0.395872034210589 
0.9798457998840334 
0.1449487932874859 
-0.3183186551870331 
-0.1220920652091834 
-0.06853465062191703 
-0.1182488121446503 
0.3353182018140425 
0.626392422750866 
-0.009215788551324211 
0.235738484515354 
-0.7152351439914215 
-0.3204919454331026 
0.3514334981181748 
0.08755002856963909 
0.6640200155054351 
-0.134096012348632 
0.7721721209307403 
0.5883974204844925 
0.2757606896310157 
-0.5462508561088198 
-0.8395761727890588 
0.2264893020015 
-0.1541068097351093 
0.1205860637683207 
-0.4489877987748706 
-0.8383398731054444 
-0.1828811383943475 
0.04932129861277314 
-0.4439361039853457 
0.1645943848362466 
0.4945676340419007 
0.3246579343034175 
-0.8065634648719936 
-0.7362193464773807 
-0.1532327461005686 
-0.1848701944291514 
0.6090875916718904 
-0.08610410308599387 
-0.4763102824254077 
-0.1346346686106646 
0.3953100987248058 
0.1992804730523245 
-0.3132533305837026 
0.7653907920841461 
0.4090481749714742 
0.2362916388853647 
1.045879963738646 
0.7394531623374928 
-0.3797448909446236 
-0.3368145509400995 
0.4765561231164846 
0.9019355889194939 
-0.007375941438757897 
-0.04686699564768312 
-0.1086811613754411 
-0.09854637164028907 
0.1755782211310603 
0.2154884062723537 
0.3363811845035358 
0.01891103503155407 
-0.5439277779513741 
0.2386785299097512 
0.03342366953976158 
0.1579897342379367 
0.2093749316496578 
-0.1474132258881969 
0.3949908951638225 
0.3103703159779742 
0.3317234794235677 
-0.5312786521427469 
-0.885206156513481 
-0.05260900642298164 
-0.207380283625096 
-0.03380682805613179 
-0.2743849053568322 
-0.4048758017131548 
0.5078138518214058 
-0.5010295134438786 
0.1000683366393965 
0.02427566213267434 
0.09420324410678647 
0.6371882559620746 
-0.5678533596705355 
-0.5178741662297647 
-0.2452679774663767 
0.0515452295004921 
0.8254282425975816 
0.2734161745586574 
0.3595822300357889 
-0.5939887843392233 
0.450089187128701 
-0.3611378049569151 
-0.1447619379723612 
0.2247172391972038 
0.01829569219872463 
0.5434579646172233 
0.5778345791265264 
0.7699008299226675 
-0.2006330855214016 
-0.443658061265697 
0.2532220644555764 
0.1981638031612331 
0.1644378375748239 
-0.08046429268564227 
-0.3105613371667211 
-0.2861324253895868 
0.1771886228446788 
-0.1324296130263698 
0.5831309182399016 
0.06784248039525531 
-0.172419539026363 
0.1465912985209573 
0.1787685901915012 
0.3294030943068885 
0.009943640958220888 
-0.8314597689907234 
0.05701849085060465 
0.07876817939433838 
0.203082082582321 
0.104338724053698 
-0.770783565354451 
-0.4196522841094462 
-0.07692639552769097 
-0.5737903498692041 
-0.6787314027905429 
0.2352330494541342 
0.2116639425217909 
0.1509494776686102 
0.8001747504767975 
-0.07685104978095182 
-0.4296954987904612 
0.7529395536566653 
-0.365561734397275 
-0.1553223141592698 
-0.3351743026052877 
-0.2209746945280983 
1.044295603815874 
0.06889790181575502 
1.298388424203132 
0.2035739566584405 
-0.1168989046402181 
-0.5317242577730075 
0.5558859887135063 
-0.7339581388939702 
0.04637989217381697 
0.2119168285791329 
0.04893923432968866 
1.123966606031589 
-0.2119077070733394 
-0.1948392228578405 
-0.8409931570111606 
-0.1543225321086472 
0.2514108105378158 
-0.262268691641969 
-0.02941941826706987 
0.1365259666992223 
-0.05968720356723867 
-0.74728459275874 
1.182832220150089 
-0.09393754902541539 
0.8189061915937738 
0.722297516841071 
-0.08177813720188636 
0.08552198809353923 
-0.7316834221569775 
-0.9501651900474212 
-0.8809613758552231 
-0.6151373177752325 
0.1433729198318717 
0.4428652673165904 
-0.06262571591325981 
-0.736577082086005 
0.06082356524816262 
-1.00404457871174 
-0.639055902999507 
0.9990513697872521 
0.5241033159277898 
-0.3121216632677819 
1.441435872587595 
-0.3747502713625724 
-1.063292443391258 
0.6606455186733828 
-0.09445330163343489 
0.9009254035468748 
-0.4219067496009346 
-0.1827865357385599 
1.116335923195184 
-0.2954038414754106 
0.8698178115448358 
0.2412868422786987 
-0.3172280398877918 
-1.081354577747162 
0.3520093753165784 
-0.7895516638427087 
-0.4023409576705856 
0.527149317037241 
0.9067150446199655 
0.8726789177242121 
-0.3106734086941715 
0.09267867529686705 
-0.7230704555426098 
0.2816193561715885 
0.5390749933314294 
-0.02039631755160145 
-0.4396804813296946 
0.08429915375522624 
-0.07370052501850063 
-0.6665416081884687 
0.6188301638185407 
-0.1634568945764089 
-0.04689347486120435 
0.5625663394727378 
-0.3554212087150495 
-0.07585746679368355 
-0.5827882940865542 
-0.5133001721103114 
-0.4415363543878438 
-0.4902880943020851 
-0.191199638274062 
0.5613392662472367 
0.0831733303788659 
-0.5339101285776435 
0.04352026237523565 
-0.7944470295509639 
0.5402612985865115 
1.136253737662096 
0.7748556357074267 
-0.1530204598342073 
0.8978279278468525 
-0.0400846991719763 
-1.157021288697934 
0.3849670283622702 
0.5908381883534093 
0.1294252620265623 
-0.07685546946258419 
-0.1526833387228829 
-0.1282093773604763 
0.4030648003133394 
0.6264747614387276 
-0.6317774943802127 
0.3417202647914613 
-0.388546049476688 
0.25377634603005 
-0.1812774141185672 
-0.5045908711939251 
-0.2275743484431378 
-0.5949778002434477 
-0.06191536192944797 
0.3613503176925557 
-0.2154570623191097 
-0.2950721339345923 
-1.33412763344138 
-0.132385965792361 
-0.225400067042875 
0.05410001599146543 
0.08274263910924254 
0.1374411146551815 
-0.01942722128558345 
0.4905506602470958 
0.2219541434938728 
0.4019301172702629 
0.01400886492699955 
0.06292787836383601 
-0.1267916813343451 
-0.01603132591753638 
-0.3123011485995988 
-0.1764670606447939 
-0.1408862703971705 
-0.2880187510454361 
0.4608005307624901 
0.2937496588445421 
-0.07060532998411638 
0.1270808374108085 
-0.3842197693832961 
-0.004908347476379301 
0.1453224090754434 
-0.4352157511622615 
0.8513688634077091 
0.03085414355791136 
-0.0414991971929132 
-0.7099146221821081 
-0.05036064964939518 
0.01749177876076857 
0.4863454916832597 
-0.08062053681972005 
-0.7347356674462084 
-0.3497939317411051 
-0.1743871250561738 
-0.4716466337018073 
-0.03541937443668941 
0.4638139942498479 
-0.02177373372631283 
-0.3824671745879193 
0.697057183295464 
-0.5305794006428084 
-0.2801358157922126 
-0.464099024137792 
-0.9101586198092984 
0.4129585976025894 
-0.1322742692575904 
0.2743903596126142 
-1.124016307706357 
-0.04247356326030585 
0.1756441838678865 
-0.04123026412126109 
-0.3209924657719928 
0.1467330771625084 
0.5303596618837396 
-0.6472457570639296 
0.1868206603147374 
-0.6597806330516787 
-0.6877594229989245 
0.03539061565039963 
0.05097703381490323 
0.5545240121206986 
0.3212928237931615 
0.4387292684330354 
0.4436071477924407 
-0.3185105198999278 
-0.0687363024946516 
0.2762956295333296 
0.3121567806261625 
-0.04212244998675867 
0.1884554594689026 
0.7423135386250512 
-0.8718934285796792 
-0.2991862958047665 
0.890876952532177 
-1.439605694222102 
-0.04984240343340746 
0.003775032245741924 
-0.6414022977629856 
0.1835869003064394 
-0.4912251305018446 
0.1198169985759146 
-0.3512043831394535 
-1.566381940396427 
0.3336030747376781 
0.1582270202374534 
1.324096924398545 
-0.6795047679614774 
2.035696221743779 
0.1833230759833149 
-1.097414706546883 
0.01362181406403321 
-0.1889596827602183 
-0.6861379756105663 
-1.006315819521493 
0.04374996544097787 
0.8446390799527895 
1.002014820615928 
0.8517392693808697 
0.4592129933361985 
0.6201457323437873 
0.1049921779544752 
-0.5304746964685526 
-0.3739912312864719 
-0.1668336397816592 
-0.5542079292538384 
-0.3039807368943593 
0.08044011460398962 
0.5268055380409895 
0.7053214811561797 
0.5438853320548193 
-0.2289787375049844 
1.16332851251088 
-1.318405642565847 
-0.115170155232433 
0.3741406190013367 
0.3000250610037158 
0.2261396642318655 
-0.1451056610814805 
0.2974977924837071 
0.3640305870246553 
0.02596363043004495 
-0.1054603635308059 
0.6212146905916781 
-0.3423638954753538 
-0.5841171358843731 
-0.198610116210337 
0.2104977693050168 
-1.105349867550123 
1.237162189694676 
0.4295299564134197 
0.7325033386274394 
0.251088165293427 
-0.115412972523989 
0.2599815181272326 
0.05565260462424654 
0.3260767680639619 
-0.3982074779290755 
0.1841325729682729 
0.2033794993096504 
-0.6681270859612561 
0.1005524852793619 
-0.3438736241989194 
-0.882572537129211 
-0.7582349947057103 
0.09253762530849025 
0.3027939545275058 
-0.3447675363753069 
-0.3211524227563979 
-0.09817330304554399 
0.01884336348854769 
0.2643095657524694 
0.04153550314101528 
-0.3005443619671832 
-0.1475514166962498 
-0.7415145166677571 
-0.1202343326315856 
0.5680002900849468 
-0.3601679654691795 
0.0212550789550662 
-0.07678417756653033 
-0.172369605311285 
0.5214362117889103 
-0.3928579080356464 
-0.2633073379877372 
-0.1617588524626094 
0.1788573006754009 
0.7004965996357454 
0.2193535729610632 
0.06960447428728712 
0.7772085510773418 
-0.001449587210008003 
-0.0961100084504305 
-0.2835272734604802 
-0.05455337617952719 
-0.1085833629895396 
-0.04990793417430536 
0.1837436247013394 
-0.615274036623741 
0.433579660958274 
0.6760199382885523 
0.2787534736872974 
0.07070224761251451 
-0.5205388338322321 
-0.1331721040806672 
-0.1387028355476941 
0.7914571830585172 
-0.617763985136073 
-0.05541818221259757 
0.1254076900180251 
-0.661719042994242 
0.2208779707233202 
-0.1460495660525132 
-0.3086279651829086 
-0.3920089456452766 
0.1674445822724251 
0.5228741856415956 
-0.5131987830749367 
0.3334040399339829 
0.1139083154466875 
0.3450989190970549 
0.3419358947620523 
-0.1083089073162779 
-0.3415368160719918 
-0.2744662946065769 
-0.6043865601625454 
-0.2497130883270509 
0.5810745895380381 
-0.2026960043757784 
-0.1482357262143493 
0.09926350551811494 
-0.350732068795346 
0.3824079908721802 
-0.4190403781038375 
-0.174791375031076 
-0.09448165136660877 
0.03007103785570328 
0.7398423699558018 
0.1990188096307098 
0.1228614502852096 
0.4690148532901117 
0.04518210426251172 
0.2889249058090158 
-0.3005986024439956 
-0.2748832917315464 
-0.3443342224238212 
-0.0964735190695781 
0.4075952029621924 
-0.6664274133573441 
0.6221863684392392 
0.1832743611059921 
0.3055026364155426 
0.5060392326600019 
-0.6036029637576896 
-0.1829519869078915 
0.1377239540989525 
0.7426546256872633 
-0.7189416012370494 
-0.1137825573290356 
0.1568844873123153 
-0.5679489308653093 
0.2378457318006713 
-0.1471427832868993 
-0.05637228493972748 
0.07383660806656106 
-0.0548331162716058 
0.4202739983294902 
-0.4893898931257674 
0.8733229737086322 
0.07936023644774218 
-0.0997845359323751 
-0.001024643048793641 
0.3106269382585846 
-0.1590368762100899 
-0.2574648475684576 
-0.1774507184473334 
-0.1582121028453565 
0.09148170424451663 
-0.01766191518006681 
-0.07103158262867068 
-0.2340321385513311 
-0.2698086515380982 
-0.005783610763091708 
-0.1789803336339309 
-0.2641240088811119 
0.2288678826950648 
0.03783236854743491 
0.5081746096356513 
-0.005802090346188236 
0.06906189085344677 
0.06262490966452894 
-0.2263520105007317 
0.2341107736724566 
0.1609163302281204 
-0.5436550552427707 
0.3446699455159759 
0.1153547379005349 
0.2803994186309153 
-0.2561809436490089 
0.1715796666213535 
0.1179974115766372 
0.1323070546285406 
0.4318942236934052 
0.2058195442819716 
-0.5896657192818419 
-0.2239754168418163 
-0.07395295859159418 
-0.2689746301973457 
-0.6206734546914014 
0.05904587329367755 
-0.3636471359959557 
0.4226698349977178 
-0.396919491812215 
-0.425801534575367 
0.2065264532831682 
0.05269765545716726 
-0.08575989318629675 
-1.146612565685273 
0.04304476506915376 
-0.2427836860225436 
-0.1182713353379312 
0.4194039426114908 
0.4213013980285459 
-0.2175923180725885 
-0.07584138079777994 
0.2685964673437973 
-0.1630591880078294 
0.6786629780485797 
0.2487882625486644 
-0.5401932487121868 
-0.3098037148164234 
-0.4164274671652958 
0.1758766346329771 
0.1359937975538938 
-0.3614393660902847 
-0.1727054315086181 
-0.3493643972255528 
0.4333111940520997 
0.312790010132017 
-0.1141936717655888 
0.4154380447964457 
-0.5387773321438086 
0.2015241140982525 
-0.08665028263044219 
-0.3521584889968619 
-0.543768735557289 
-0.03593167813172051 
0.5241988878430428 
0.2067589383624383 
-0.4112107706876919 
0.1149714330886993 
-0.1543391426588137 
0.3111993281232406 
0.2358005745361554 
-0.8426581427147999 
-0.1611336922479028 
-0.4400429101079074 
-0.08597014630878753 
-0.3721759965197188 
0.09398538271493025 
-0.06176416198249454 
0.09988840423735348 
-0.1640206017070356 
-0.002775367798985476 
0.316523805791947 
0.01111699468463215 
-0.08201163653114946 
-0.3191527004590776 
0.09645518044566617 
-0.1746703598750995 
-0.05059066933620197 
0.1832155528317732 
0.3491286360243223 
0.01244345025026774 
0.002900361829197548 
0.5607703873086448 
-0.05251334797418589 
0.3483576104259732 
0.5424509037251287 
-0.3495984110684086 
-0.2260342592316 
-0.1946030690141269 
-0.0111778923812817 
0.1424637354309292 
-0.1296289404405376 
-0.005402314253415065 
-0.2704496632312234 
-0.141652885541773 
0.009010948344195845 
-0.03360147870996177 
-0.2716320763456297 
-0.2449907474053655 
0.2891406376169983 
0.238345458834081 
-0.2335416846607527 
-0.09651754505442883 
0.009991792352772316 
0.2543286765619019 
0.4054573787420834 
-0.3907148491345649 
-0.2906962280155461 
-0.145062462467782 
0.26736950246288 
0.5111845492586903 
-0.3771555789813498 
-0.0886115251412725 
-0.4160376425176618 
0.06125272948564672 
-0.389794725632719 
-0.08596692687930257 
0.02877413591774363 
-0.1349965149267359 
0.04329743937250308 
0.03344958569229319 
0.03445779123405514 
0.1355519478070456 
0.01519671200935254 
-0.02457852185922195 
-0.00879074114422837 
-0.06876987195087131 
-0.0660374590122523 
0.01329737020040615 
0.1286401401566773 
0.09263823793504629 
0.1106967251286464 
0.06933042362316508 
0.05751306893512668 
0.01784712435235897 
0.02807985772290076 
-0.1391673367344412 
-0.1379151885198758 
0.08079689691454511 
-0.007877546917266828 
0.2240090112570854 
0.05856017371679478 
-0.01825654880377031 
-0.02059518409130029 
-0.01338238544072388 
-0.009040206386311422 
0.01336594052258197 
-0.05847240306948837 
-0.005260374827873352 
0.08124611912670889 
-0.03946895264267346 
0.1352646902917945 
-0.1044424673567938 
0.0752006911484456 
0.184146194953248 
0.118888605115959 
-0.1681980284116318 
-0.3002685780082018 
-0.05810832425077324 
0.007605404946816255 
0.02137243349462346 
-0.06804030156451693 
0.01929366257596249 
0.1422729348061134 
-0.0128937100053922 
0.001025991188749084 
-0.02174203025864662 
0.02566987948666429 
0.02169026491118417 
0.006545144449511589 
0.02741917372832328 
0.09915836938135809 
0.005769533402458047 
-0.03446823202791424 
-0.09407567488527982 
0.0817414316139507 
0.03150293277674142 
0.008115825040387773 
-0.02362615176200143 
-0.01347003887598899 
0.001637664175335642 
-0.02650488297738901 
0.1252791600307599 
-0.01374210541045236 
-0.04852180888942415 
0.05018585085186831 
0.01061833979578012 
0.02058799481307346 
-0.0363917343976574 
-0.07912178521736332 
-0.04123610397376522 
-0.01163781758544025 
0.05387751264911286 
-0.04126556805171722 
0.004001501455010821 
-0.03861700996394354 
-0.0131008298946359 
-0.123486262864865 
-0.09002019578496076 
-0.001316277008913677 
-0.02993865174774346 
-0.007489322113811658 
-0.001357452066636615 
0.0111680207069637 
-0.0289742015544878 
0.01701588049449274 
-0.04541689719817914 
-0.01163823090304513 
-0.03916918187207172 
-0.1075124845358325 
0.05876826818673116 
-0.1212089703836236 
0.06883210131285512 
0.006231928640692067 
-0.1031684514953375 
-0.03580630237321612 
0.09398372584373099 
-0.0787061093417995 
0.0614586507996194 
0.04144672865857967 
0.06810486235831015 
0.1650199342816269 
-0.1026964260028605 
0.01054724623538724 
-0.08479840434690109 
0.1840199862240693 
-0.0505003565961993 
-0.1503967614583861 
-0.03153370074282227 
0.2014827801761656 
0.02213941141055214 
-0.04556299439231056 
0.1807601992967338 
0.002140787401777605 
0.07524656077947627 
0.1908482843054415 
-0.1185567725696649 
-0.1530216247881249 
-0.05853209700950741 
-0.01151660013263374 
0.001807813783136276 
-0.09096991126073208 
0.08475456917383567 
-0.03015778836050538 
-0.03368122907667542 
-0.1501648536617731 
0.0009103052811492143 
-0.189546818909596 
0.05167283745391489 
0.04181265699813228 
0.06796590688641573 
-0.2292385194478885 
0.2950784706241916 
0.1115424525479751 
-0.001744545682592486 
0.166271849808206 
-0.1384500839533697 
0.1479154065458606 
-0.04742494675439864 
-0.0284114884793848 
0.2682883742652092 
0.02558622303493654 
-0.0748602641309563 
-0.1470352110615978 
0.0993852056930272 
-0.09075499894011857 
-0.0852769131267006 
0.007106952630819355 
-0.09077518895037141 
0.119832745999589 
0.06667433338565322 
-0.0883931830936342 
0.08294661067196975 
0.03124043969927317 
0.1165226979787049 
-0.08682910501531334 
-0.003874980136829341 
0.04934797191327569 
0.04477375863857011 
-0.1145229476286616 
0.008353839459468791 
0.02736842897931233 
-0.1930549284464167 
0.03184430565254146 
0.03525259487451036 
-0.2019316396961763 
0.01978588337405239 
0.05224793899618002 
0.07267805383492283 
-0.007417349277763001 
0.07146245873641617 
0.09319213926083712 
-0.0852201158105185 
0.07395046172177179 
0.02552678244117788 
0.04351983307603865 
0.02393247446369944 
0.1438026597435345 
0.09449476223968417 
-0.003973243670890107 
-0.2209735949844872 
0.1542908172656355 
-0.009974168450908977 
0.03833293500488358 
0.0539551889131728 
-0.09671257384027078 
0.08858804227811753 
-0.04852566083771753 
0.03907423692669346 
0.05627598291791771 
-0.2229967292725675 
0.1651871691568642 
0.3110546204135951 
-0.1178258962076699 
-0.223605838439476 
-0.08705222715625655 
0.1923561863518258 
-0.3679641582356986 
-0.09843539453487178 
0.05227844879332442 
-0.2985287002037935 
-0.1623781618583949 
-0.07461383476944058 
0.1281769553474652 
-0.01934955014868452 
-0.05980448874656798 
0.01389937783560615 
-0.1739611840099407 
-0.1669209920401331 
0.0908968162785974 
-0.045917758135518 
-0.1275094314863616 
0.007177673512890052 
-0.00423719628736252 
0.092681117542181 
0.1434765797871489 
-0.01402160089757215 
-0.1041321437209226 
-0.1047286696569562 
0.01765950068819501 
-0.1650661263973575 
-0.2164536303600667 
-0.03867086819052097 
0.3481667140578998 
0.1231432567917183 
-0.1367507670936459 
0.06906433280730062 
-0.1055671409290813 
-0.04058523769041167 
0.2435534942558835 
0.005106072462287687 
0.1400922350766072 
0.3211437427531613 
-0.08295332396961941 
-0.07705248829614607 
-0.01244858268371411 
0.1194071625699661 
0.3371753024978904 
0.02335339151691656 
0.01806020442673794 
0.1520539912680015 
-0.001664736374935489 
-0.01433957196538498 
-0.01169074646942316 
0.04454257426755512 
-0.1185750801588514 
-0.08773558402498691 
0.04470732475901744 
-0.03251891447069682 
0.03720183832503763 
0.01037196844725722 
-0.03986765168878678 
0.1070621545265788 
0.02913506974850195 
-0.06522836921002305 
-0.05979288360832162 
0.007181012079883755 
0.05331201881152352 
0.03965131663276336 
-0.07483240013725288 
0.004958687275543847 
0.03552980797151459 
-0.1470570858634181 
0.003750817307004144 
0.01661481253073459 
-0.1649655091310872 
-0.01701459863340525 
0.03852329701848135 
0.04648271392581164 
0.05258174730047854 
0.0202557349178357 
0.06232922817940374 
-0.03081161430966596 
-0.04044981981852974 
0.07412862042968067 
-0.02674209819551227 
0.001080395431591228 
0.1335192130597005 
0.03145761839708347 
-0.05268144254770536 
-0.1475155027445421 
0.04501693588601396 
-0.1748694804529099 
0.01498469250181729 
0.08292243390467074 
-0.06983981738606818 
0.0162450010125191 
-0.1282893151880301 
-0.002442059967311458 
-0.04223919901996336 
-0.2046310773050704 
0.004791632862292047 
-0.33239000739381 
-0.008848773765390236 
0.09959190079107429 
-0.04575383484832367 
-0.1339834873648987 
0.1449191728452731 
0.06322881714124706 
0.007293776911845054 
0.2412654045002775 
0.09945005525764801 
0.01568795839904318 
-0.02980309737800971 
0.04612077413930598 
0.205081732038764 
-0.04667640952702257 
0.03941122643496894 
0.1365180316857106 
0.01367893932494585 
0.02564945386261713 
0.09310984705250669 
-0.03157081159551449 
0.00647529328401162 
-0.01735176291750931 
-0.05011789657534486 
-0.07385755661417483 
-0.01844957644241951 
0.05919512065109591 
0.01008247885844231 
0.1898414141091887 
0.1303845129342498 
0.02359230985240139 
-0.1867313600474934 
-0.06230849507514687 
0.1495625995097445 
-0.03636872089899272 
0.0976376492533208 
0.05051782402083695 
-0.1122287618916813 
0.02685776360975099 
-0.1204007526919797 
-0.1287062848797714 
0.08511461488263876 
0.16088527790944 
0.01384414124509221 
-0.09840567097005844 
-0.1811213973585174 
-0.006811998328864721 
0.1177433544779966 
-0.05107517064264207 
0.07191823825873697 
-0.0281514788304885 
0.005547195775282646 
0.1210395988558286 
0.001090127178399703 
-0.09676380981657161 
0.01378944196821727 
0.02054729146080184 
0.05764844783734637 
0.02690151613677756 
0.04839677694705899 
0.07645561922421684 
-0.03518680023833389 
-0.103718607337192 
-0.09319390498257604 
-0.0272736696800959 
-0.03097441733869423 
0.09111483039466098 
-0.0947677722860794 
-0.004595863830111364 
0.06673447551474966 
-0.02373816386905099 
0.03900140841887396 
0.04423158641044789 
-0.1246854366518337 
-0.03946038142743428 
0.0338508531300518 
0.00976845416080214 
0.01457268833448459 
0.1069037089668049 
0.03626001078551848 
-0.132573373278494 
0.0436942088290312 
0.1141182938170787 
0.1060638061904034 
0.005800926273760944 
0.2023313051120659 
0.02799846641527407 
-0.04127219344198271 
-0.2488275818641199 
0.08659453258926539 
-0.3443827554106084 
0.02510861258333147 
0.1002504418904418 
-0.0573078755672532 
-0.01304816935577118 
0.1022457984078729 
-0.01319002587349469 
0.06979995090803304 
-0.2112268699482198 
0.01481388010500967 
-0.09818449059245775 
-0.09107499447429444 
0.04761210776867964 
0.01403367134890119 
-0.05811266166251868 
0.01488799094280498 
-0.03924626047672029 
0.03072008159422096 
-0.04271160417378838 
-0.08977312512802771 
-0.03257136813689308 
-0.02897989081277596 
0.1547982797819403 
0.04153743766760833 
-0.003948452394085982 
-0.0399018010495141 
-0.04324304601640694 
-0.02350828274779263 
0.01927139827595748 
0.04414076901187822 
-0.09158945161783234 
0.01840865322224993 
-0.09049566377351613 
-0.06015389970133359 
0.04496727280438161 
0.004274967855137465 
0.06750549187886334 
-0.04499302192689494 
0.06163771433480299 
0.04280262043018829 
0.04046419256383396 
0.02984955283921665 
-0.07558261152914041 
0.06105312885505705 
-0.01649099562568849 
0.009350396612947082 
-0.04907905533611172 
-0.0295161882597207 
0.1144886395505669 
0.0406105132399353 
0.06222235744196868 
-0.009315174978215705 
0.02472038665091618 
0.007918931348279926 
-0.03178899610244956 
-0.006490132888609533 
-0.005599657340393927 
-0.04201913614629304 
0.06767799339396653 
0.07159263777255355 
