solver_type L2R_LR
nr_class 2
label 1 0
nr_feature 1000
bias -1
w
-0.2068567200027807 
-0.07379751794638124 
-0.1229368929459377 
0.2050928153600143 
-0.03860179025295872 
0.2602648706667579 
0.04606129365472417 
-0.1219574074804865 
0.05393028098288274 
-0.2970690084438944 
-0.03012050567597897 
0.127066337625918 
0.2081639506836879 
0.1124811625582235 
-0.1371923867192121 
-0.06693643802763889 
-0.1549103602749475 
0.05248576759814277 
0.02885033700518702 
0.2110085188617311 
-0.3512914433306191 
0.03974730579293725 
-0.3824238512923838 
-0.2006553818796509 
0.03974376249937152 
-0.1346649765485626 
0.2261673727200225 
0.3511436250607182 
0.2730117507065887 
0.1002500266567287 
-0.06642971572521462 
-0.07087536076192047 
0.04453675942797933 
0.1692509552994803 
-0.007925763159014117 
0.3485630785680308 
0.2191313282840453 
-0.2744993963650578 
-0.2607499848863127 
0.02508311474801131 
-0.3682438193873121 
0.1314327367306226 
0.2743634337130281 
-0.1700000080281426 
0.01753877225368141 
-0.2176395205692622 
0.1419884944914739 
-0.01720450611905597 
-0.2952133296655863 
-0.004194623019193836 
-0.6876199129840459 
-0.7773815088914856 
0.4129029196879487 
0.3705736602032683 
-0.35634082587158 
0.9125043583510348 
0.07250409835834895 
0.1896752381300302 
0.6784050866140057 
-0.113356845396225 
-0.2298660236912306 
-0.2372747039410518 
0.932364069511362 
0.2770169614762087 
-0.2419888279039175 
-0.1117415460459388 
-0.3408414497064366 
-0.1288831104868214 
0.2606898002354041 
0.5992764402238346 
-0.2478747874728099 
0.1988432462332373 
-0.91667582789214 
-0.1755269270095948 
0.06539703159657771 
-0.01826402027848828 
0.6267987231769959 
0.3114670939712879 
0.9114788090122482 
0.4877383751000193 
-0.06722937403563786 
-0.2814076375649638 
-0.6940079176353291 
0.2343689233054078 
-0.1069200634174493 
0.3199416965034318 
0.3597254736641357 
-0.6891285445589995 
-0.1058608115255285 
0.1018215478237978 
-0.6405414331821879 
0.3594207768139513 
0.3915043881238017 
0.2844445198632893 
-0.3186779665958919 
-0.6439118013253726 
0.09055337634173713 
0.006972005970271887 
-0.01829018055206702 
0.5330981905543221 
-0.3409937129472769 
-0.6133302751673866 
0.5578594507068055 
0.5341758807788506 
-0.3610958282188607 
0.9501817973904889 
0.1938812079292873 
-0.08562146653162171 
0.1281672423135219 
0.1073014392272095 
0.04509473580620072 
-0.3750340471422638 
0.7387191628272602 
0.01351888788520833 
-0.2851986077460734 
-0.1769172562655991 
-0.05799984260877374 
-0.06945292530221592 
0.3006216466123621 
0.5060828598880389 
0.07116854997679889 
0.2226952948086902 
-0.5056353642714383 
-0.2887655775763655 
0.2938482928082116 
0.06666048958542753 
0.5368762230415119 
-0.2265439701181367 
0.6288438340110563 
0.4519502852789343 
0.2607604191345285 
-0.4284405585543366 
-0.6810595408776433 
0.1071437956175307 
-0.1167144429995324 
-0.01313136977780159 
-0.4857890703433688 
-0.6969339666439409 
-0.2240749240951037 
0.02721740677193085 
-0.3206091705501724 
0.1427369210021474 
0.3789873139025913 
0.3316748483796226 
-0.7589246170281652 
-0.4765426490191969 
-0.1723824809084251 
-0.2283932380816536 
0.6558707063722556 
-0.1504911353042326 
-0.2414454526452463 
-0.1351480047041327 
0.2542273232591143 
0.2219045256714287 
-0.1926101676503676 
0.4883487984206411 
0.2687893049601137 
0.2797905007017403 
0.8266100072990706 
0.6392013485938639 
-0.4117701542499955 
-0.2893948233826471 
0.4143163933050354 
0.7862425597847245 
0.02678426936831108 
-0.1126170339866346 
-0.2167579297704165 
-0.01042050158906446 
0.1341687726863065 
0.1087270496566716 
0.4184843158280251 
0.009258928865405462 
-0.5163391005933926 
0.3625741258350588 
0.04730148919181375 
0.07113534276635591 
0.1136721384036352 
-0.1505714079439738 
0.2718439555066047 
0.1463522104557689 
0.2693458529699426 
-0.3088418793642458 
-0.775996855032662 
-0.1313211829421927 
-0.1665151438603649 
-0.1406690820686862 
-0.2103950051071944 
-0.1990696815796832 
0.5283041608003224 
-0.4054950998531225 
0.329832262741061 
0.05900366585416246 
-0.004843027462687027 
0.6246112573442494 
-0.4612916241237771 
-0.307302938477787 
-0.213101398127338 
0.0501588983336976 
0.8508551871828061 
0.203999871143618 
0.3546627843865296 
-0.6308525668703795 
0.3665264375783694 
-0.4087857195106383 
-0.1247499389369735 
0.1408370217238809 
-0.01703700498119011 
0.5079372974072693 
0.4732484703141815 
0.6345814030163137 
-0.1688575967625512 
-0.3718055656778418 
0.2254225684107944 
0.1650867311632944 
0.1644835288418318 
-0.05271359243557179 
-0.3160965757163853 
-0.2513444203505543 
0.1558566310019815 
-0.1252732128981305 
0.4622269225518731 
0.04855855301033929 
-0.1450400938381334 
0.119847109829865 
0.1437016216679207 
0.2941040265429601 
0.01015220862000474 
-0.7232550391229018 
0.05191284959729461 
0.05667944447901869 
0.1766234533901634 
0.1124392133854713 
-0.694260762996414 
-0.4016798286905533 
-0.0615639641229154 
-0.5109185201674902 
-0.611774541706219 
0.288341319021761 
0.2506905367571328 
0.1370954227413818 
0.7076164373759279 
-0.06556326477879119 
-0.3626138671265126 
0.6998710387807366 
-0.2977035502391804 
-0.2126168190602281 
-0.2833283091539002 
-0.2139573480379993 
0.948012901934558 
0.06423076756568852 
0.9207302078814018 
0.197378532462452 
-0.05930329719921444 
-0.5650050020423635 
0.3545924950473463 
-0.5855503333980723 
0.00148770474926394 
0.138121776615709 
0.1141476011610559 
0.8869542262113945 
-0.07556232610700143 
-0.1259926292090976 
-0.7678144259972154 
-0.09369892322405807 
0.2328578622917048 
-0.1284531264828014 
0.05301300815083015 
0.1049121214711731 
-0.06350920634581568 
-0.5822769245355517 
0.838984222563061 
-0.09240510876381348 
0.6419430579746113 
0.4552196642599098 
-0.08293730647932802 
0.059499919464032 
-0.5735972756470599 
-0.7170462909755863 
-0.660092234709161 
-0.4493177269537394 
0.0901879294102708 
0.2874828078978359 
0.04817916915524328 
-0.4760316936986065 
0.02968508652975443 
-0.6496524916034634 
-0.4791525356667736 
0.7892360841223212 
0.3537881140101047 
-0.2076073832851144 
1.021909245128058 
-0.2681586882019022 
-0.8185838706819991 
0.4329917006232871 
-0.02797832454722168 
0.5685456293972462 
-0.3141697831416129 
-0.2312760767692753 
0.6749747376709443 
-0.2740924734702129 
0.5331551027200938 
0.2629420412003839 
-0.2248977126159658 
-0.8745646825268145 
0.2248985101284725 
-0.621684311425805 
-0.3142198242513891 
0.5089924331600247 
0.9848482419072986 
0.7641491203057106 
-0.3092023332062054 
0.08697897238347564 
-0.5386757649336213 
0.4008831052914652 
0.5020310268781696 
0.093845451068035 
-0.3292586709282074 
0.01135503388855499 
-0.09027360345050341 
-0.5441405373104133 
0.4745151892651166 
-0.176719412454749 
-0.09748592911381398 
0.5264097430045164 
-0.334123480557682 
-0.01278360050028352 
-0.493179582768822 
-0.3027514262748331 
-0.3479074368330796 
-0.3590424694092438 
-0.1849961524028718 
0.3863869045049187 
-0.002607689159063092 
-0.3731165196328047 
0.006330850515931536 
-0.5447725182560238 
0.5899576209241295 
0.9460759882567074 
0.7389367475774151 
-0.1951512341506305 
0.6528316332958529 
-0.02653670105411993 
-0.9395015990674231 
0.3208533700877959 
0.5666252195268067 
-0.007026318529109177 
-0.03338453561215275 
-0.08051183220305008 
-0.2219324817035149 
0.5187416788804243 
0.4660605060673111 
-0.5932248645446833 
0.3414343999142615 
-0.3701297120379582 
0.1670335273480392 
-0.03082177458105889 
-0.4155401714946044 
-0.2513230556016152 
-0.5330508614762716 
-0.07248157800898866 
0.3573948055778539 
-0.2133014439673111 
-0.2244202962754193 
-1.145282088860867 
-0.1333379809035774 
-0.187429163845948 
0.04419567295372274 
0.06568233936267594 
0.1656822817023893 
0.06800212688723603 
0.4101069756390896 
0.2152393615212833 
0.2847994610478037 
-0.02873939354409201 
0.06544391440754108 
-0.09493452225089233 
0.06373255471563452 
-0.2763285859064903 
-0.07622458525599475 
-0.04749973853795855 
-0.1907385309767982 
0.315335671481827 
0.220395701740388 
-0.0364421185304773 
0.1021837754868209 
-0.3582016071976313 
-0.07473848358342966 
0.02726086965589365 
-0.3332594364758661 
0.7599470955834112 
-0.1243245185147778 
-0.04265914069678281 
-0.5525686516905386 
-0.02848054417122942 
-0.06216971988066271 
0.281869969214995 
-0.08453143593828402 
-0.7002685565922487 
-0.2750964195625768 
-0.2092933308588861 
-0.2471196119799836 
0.006786163637539498 
0.3676672309878214 
0.1166204031518431 
-0.1940244509550391 
0.4711037664388583 
-0.4649797092273842 
-0.2924667516731041 
-0.5528013297521778 
-0.7943833491263773 
0.2827385383961007 
-0.132505807772901 
0.2126281566764178 
-1.110713399449389 
-0.05267638087392262 
0.05927296999427905 
-0.04075166255654999 
-0.2018831417064381 
0.09800311557595798 
0.3884540973038383 
-0.4237626156684621 
0.1636754455047546 
-0.4680766587865201 
-0.4407470319574258 
0.0345232139341542 
-0.009043811358446322 
0.3947675451136724 
0.2879412151722022 
0.2464040315614906 
0.2571223766963923 
-0.2992508577325932 
0.05167005990411462 
0.2622088383934038 
0.2214450811752076 
-0.02477745075465018 
0.08211817023845823 
0.6672602745239929 
-0.712651447861038 
-0.2065539672954332 
0.7631966980369118 
-1.066787482836201 
-0.09309630282332421 
-0.1522092918150911 
-0.5328722823173717 
0.1733098406246437 
-0.1118894215136011 
0.09181175589372259 
-0.3362904383676453 
-1.253537213634755 
0.3249981154664625 
0.1756768436579248 
1.246117762254038 
-0.5025136447411972 
1.847058720260067 
0.05552915934917733 
-0.9154626787308852 
-0.04229727194963384 
-0.1151847175098202 
-0.6479355684048609 
-0.9235485603844988 
0.09491465584204264 
0.6839858064948239 
0.8878007089350735 
0.6900173324619029 
0.4215516050761897 
0.4816978395339065 
0.03085267683713337 
-0.5094830746686648 
-0.2652891725006554 
-0.04034291925914383 
-0.5423744221948992 
-0.1920996083844881 
-0.09804205124919832 
0.2910815728607627 
0.6626921095848973 
0.4810555808503776 
-0.08359950907482327 
0.9721079762041205 
-1.020646521089834 
-0.0242163110605023 
0.3364364578317057 
0.3064477071761638 
0.2816371843863138 
-0.1403837767880319 
0.2754893294435039 
0.3009605345190614 
0.1063212443732187 
-0.3029589581674348 
0.4784617024866766 
-0.212014043276264 
-0.7224679269408416 
-0.02549519201032691 
0.1860504385431573 
-1.030702697409434 
1.078136090094851 
0.4373195040110153 
0.6703111992825214 
0.1332596256161925 
-0.2428912496457209 
0.236017523700922 
-0.09864091064558322 
0.3414614145117465 
-0.3557727345399982 
0.1500638981252495 
0.1575936067749328 
-0.5156091145673101 
0.1354571675128485 
-0.326657977390139 
-0.6851198685471241 
-0.6853781411395781 
0.06403110049227492 
0.2719053349136361 
-0.2767849409876618 
-0.1785154883858043 
-0.09424238070752289 
0.05971402541762735 
0.2509526654677709 
0.0430537424188379 
-0.2565627340803824 
-0.0960189396565355 
-0.7139823875654009 
-0.1106425993400117 
0.4659220440120444 
-0.340377061365478 
0.003393003383620561 
-0.06522484673528996 
-0.109880223046618 
0.5129158800282075 
-0.30027697988372 
-0.1731415978734591 
-0.100996624165188 
0.06499298616630894 
0.6074747540502214 
0.2321535299986354 
0.05247823467837115 
0.7039925646900428 
0.05926657214180547 
-0.1949512958076579 
-0.2195904707401563 
-0.09696211140868732 
-0.1145059564433087 
0.007117833800451819 
0.1839496066833769 
-0.5688674988666163 
0.3989359632604403 
0.5262157361102759 
0.283466752761269 
0.04277053723852692 
-0.511484750890954 
-0.05998000940997741 
-0.1554651710750322 
0.5973747096634552 
-0.4687521327540932 
-0.004621725460925648 
0.09440971347875268 
-0.553923331944618 
0.2085226655511548 
-0.1581868345541008 
-0.3150151875995595 
-0.3778229636972975 
0.177260800893434 
0.4348322827595571 
-0.407192301877044 
0.2065806447937181 
0.0519592617226035 
0.2864094240452515 
0.3637736271305056 
-0.08337105660439753 
-0.2851675193363972 
-0.1918830512696541 
-0.5702352819957707 
-0.1931603442218065 
0.5770122520952427 
-0.2298135872395033 
-0.1261005249787272 
0.07866036369127083 
-0.2659789242385337 
0.373496555733166 
-0.3253734886736597 
-0.1218635187185491 
-0.09302925316208488 
-0.003202094831253492 
0.6394739238691881 
0.2079027843034642 
0.1075659834666473 
0.4917698784826915 
0.04467048194953836 
0.1780619361545346 
-0.31265828996147 
-0.2437247498125078 
-0.3510643966139388 
-0.0579271447834874 
0.3896367257576814 
-0.5837863736655949 
0.503769232387265 
0.1989982991980432 
0.2743542970747123 
0.4164778092720602 
-0.5349574903448076 
-0.1156639862115066 
0.05401454106568515 
0.6032780500962988 
-0.5871746310907642 
-0.07029348165567756 
0.1097208721689452 
-0.5129386097084447 
0.2038552187707543 
-0.1220907738404622 
-0.1013929992038231 
0.01041288471793377 
-0.01930355974352025 
0.3669384846812266 
-0.3612377571403332 
0.7378967077997669 
0.07422970936048179 
-0.04338955352451612 
0.05235691170806894 
0.2313958458526017 
-0.1415479517215638 
-0.1980061224352545 
-0.1837075474795508 
-0.1386378849766677 
0.1397647118467021 
-0.009130986188684593 
-0.06318587945465337 
-0.1601008509796491 
-0.226186137400512 
0.01602472817841256 
-0.1547527497245308 
-0.198302406387336 
0.2004299059310279 
0.02540143535925868 
0.4215081500149386 
0.03227029214478094 
0.06877875950107455 
0.0676102703256119 
-0.2129625413832568 
0.2145397035410337 
0.1867872934475061 
-0.4584052913936355 
0.2145268207722844 
0.07117427908721786 
0.3006885198669252 
-0.2352862110663371 
0.1621242278170422 
0.08814027185356435 
0.1267928502168273 
0.4245019885483006 
0.1860825023847039 
-0.4605900713887041 
-0.2286504293266435 
-0.006563648306966263 
-0.2801925328224451 
-0.6141609851219471 
0.06028256703034067 
-0.3051742085900584 
0.4368044393695493 
-0.3414541998233265 
-0.2986116278221631 
0.269612029601689 
0.04579550242584355 
-0.05458827321790118 
-1.072272217387022 
0.1626221419028731 
-0.2112885831021825 
-0.08868265821750637 
0.3983900891886943 
0.4172612193661328 
-0.1828151180867203 
-0.08050926844530293 
0.2836265230794026 
-0.1573340051432107 
0.6512405134391146 
0.2634199835217728 
-0.5372710393532378 
-0.2863414972371525 
-0.3880840588970318 
0.1365980292885345 
0.1309626976289345 
-0.310350555176065 
-0.09264429224378587 
-0.3862576477883731 
0.3796825920925998 
0.2254382117487586 
-0.09738923929690058 
0.2766983591927352 
-0.4789013815655949 
0.1805313191556443 
-0.0649111876094868 
-0.4178796835785633 
-0.438465211043504 
-0.002035633264980703 
0.5086564658338327 
0.2254197706308322 
-0.4023427950965143 
0.05292043760638981 
-0.1477304707445025 
0.3111713120536681 
0.2860316751301853 
-0.756824915806974 
-0.2180303972196597 
-0.3792024320845657 
-0.05378382214190695 
-0.3422708344582221 
0.03337320457170265 
-0.05218661270410586 
0.08599162306521413 
-0.1358690725326807 
-0.01722994818722651 
0.2592274326883017 
0.02255911545700232 
-0.08636218538317837 
-0.2839731028759285 
0.120154924425708 
-0.1512632393135326 
-0.03342671414170016 
0.1857187469011924 
0.3277601777406479 
0.003118015110732949 
0.01356057136498416 
0.4848574508332053 
-0.04934980684983744 
0.2923543245727285 
0.465485273645495 
-0.3129446997157636 
-0.2165614081234526 
-0.163235938731927 
-0.0025124406127685 
0.1653243746865957 
-0.1043209413178095 
0.006134296462426969 
-0.2647386926545164 
-0.1149503577189021 
0.04291053837441065 
-0.04735093343427881 
-0.2072854523303866 
-0.236329384314101 
0.2121293309069517 
0.1667768590239655 
-0.1708842439116829 
-0.0630119526930485 
0.03397544940783868 
0.2780524175329252 
0.3462815236885808 
-0.3756002522700636 
-0.2710777343304195 
-0.1345872256764207 
0.2372952900592096 
0.4541215266594588 
-0.357728252096787 
-0.05254692886829512 
-0.4708218550257291 
-0.01695874801286431 
-0.4706361805487516 
-0.05117367808128445 
-0.001258220525362244 
-0.1302505945062615 
0.03756571614463287 
0.06095831210663534 
0.03901813055832409 
0.153947630385628 
0.06527736874854223 
-0.07219569958415166 
0.02320838327408088 
-0.06409971533910132 
-0.02714956626147734 
-0.01386990436879501 
0.1430803458656815 
0.09102289144358539 
0.1001542015192591 
0.06926536399539161 
0.03986937288654507 
0.03684973849266115 
0.06160030965982907 
-0.173708408307635 
-0.1419112372744059 
0.06242446930229183 
0.03137357211615322 
0.2243438852945816 
0.0450486289893726 
-0.03307679482587353 
-0.03178528112081761 
0.001768419029477036 
-0.0397831502545038 
0.03448619823683234 
-0.07750563918700454 
0.003979555069872315 
0.1666471755040572 
-0.03466320338796459 
0.1100794507209196 
-0.1726743375366219 
0.09171641746889629 
0.2213505378270025 
0.1375798909889229 
-0.127172602146903 
-0.4171561221360072 
-0.02722755015380632 
0.04544707100233421 
0.01490100829920675 
-0.1218206062057197 
0.07277391513561984 
-0.0639337687924607 
-0.03267273975120433 
-0.1808082291175618 
0.002505014737237415 
-0.1035059708884654 
-0.03806275146257694 
0.03634802927966682 
0.02397711215858712 
0.1145398491599029 
0.06924355009640594 
-0.0007968550587750412 
-0.1430762593591867 
0.03505493678676468 
0.02082771496882363 
0.03141517698545569 
0.01595687684622107 
0.04729593032151141 
0.007707169558908366 
-0.05561875283972591 
0.1344920807287419 
-0.01503204091930011 
0.09848393645647804 
0.06221294784345319 
-0.05244353226066836 
-0.02170099710405056 
-0.06349172767665513 
-0.08780539353347805 
-0.02055826967463876 
-0.03273045188929145 
0.02328872033375766 
-0.02391983576144839 
0.02394508118994762 
-0.09372423689608686 
0.01710982971762737 
-0.1492517316316246 
-0.0739888885873369 
0.1126522071227925 
-0.04499709603425769 
-0.008027721219081751 
0.06634630119347934 
0.08748299629173185 
-0.006847839557950819 
0.06471364801163755 
-0.02296420859664567 
-0.09262438414704396 
-0.01303164588049036 
-0.0498107100898392 
0.08132510453074106 
-0.1348613902850904 
0.0507973934165963 
-0.02171014068508515 
-0.07085666775845373 
-0.02996934457409837 
0.03718889469231003 
-0.05060161774239575 
0.0009247540767368268 
0.0446035772589672 
0.03187821510428211 
0.06431415875191646 
-0.04050278401578913 
0.03318744512193621 
-0.01657475192903539 
0.1143912919354275 
-0.006472322487825822 
-0.06322834497145663 
-0.04654035841173726 
0.08629161899967765 
0.01258679224038367 
-0.01790488358183144 
0.08795082573239404 
-0.003082167788198192 
0.000227767594213198 
0.1186133565117162 
-0.05330647679974157 
-0.06917183071630995 
-0.02692867045464374 
0.01372449885087507 
-0.002429770891849996 
-0.04649496521436088 
0.03529887886601941 
0.01318630543570068 
-0.02419900401030946 
-0.08423064510246603 
0.007749685919906362 
-0.09415762171471262 
0.02079028640443368 
0.07419443285828264 
0.05082302191602803 
-0.08008493566862124 
0.1084353509135131 
0.0313268069532355 
0.03296482064971538 
0.08341473647422076 
-0.05362970677605198 
0.01158318708263243 
-0.02384932526986104 
0.01401782002810813 
0.1323433349717105 
-0.002417176756195277 
-0.05122291201870993 
-0.04470555344946106 
0.04790098603197321 
-0.1039410522597804 
-0.05296455048247087 
0.0461981768040949 
-0.03473392886800282 
0.05610713327624901 
0.06374689667690214 
-0.05504177602897739 
0.06222786932816557 
0.04623020383723856 
0.03097622516553683 
-0.04833878085295254 
-0.004567271737867143 
0.01364274789949665 
0.02575541669571887 
-0.07064613330602562 
0.01106601101297121 
0.03369426426152269 
-0.1604954967175884 
0.027039608277577 
0.001376326617081369 
-0.1671217666764756 
-0.01179164547627522 
0.02230374533656385 
0.05959749400464102 
0.01291993630092612 
0.06873133416240017 
0.0680524661815127 
-0.06210560091210242 
0.04790636872596417 
0.06803821028126818 
0.04285818054975795 
0.01740281682288953 
0.1191285709861324 
0.08961925032770413 
-0.02814173784775474 
-0.1790099283299551 
0.1065639522978378 
-0.07842662661650612 
-0.006290873663502701 
0.04853683585789676 
-0.09347269568646191 
0.06066139660441668 
-0.03353752475367979 
0.01983498293969711 
0.0421523517148452 
-0.2143062633786442 
0.1111261990483225 
0.2362919865473889 
-0.07091177932011439 
-0.1404854550412411 
-0.07057598903424968 
0.122284695656903 
-0.2515095497939956 
-0.1017606040995428 
0.06797883759957271 
-0.2279719584871364 
-0.1314151892548061 
-0.06050087261903601 
0.06434677157639486 
0.01933638986984633 
-0.06313183177922509 
0.02880081870189121 
-0.1222399485960207 
-0.150549878406076 
0.0501210171437793 
-0.02200308556698984 
-0.1031622246540839 
-0.0171575474185339 
0.005340006231328055 
0.0274459919317977 
0.05135604519170273 
0.02533317569015184 
-0.0596478487610726 
-0.05314139501992156 
-0.06315026530801468 
-0.1144853730918177 
-0.1394148195228183 
-0.00296016488789588 
0.2664518831299263 
0.06924206775042542 
-0.1192992366841324 
0.04527208964924359 
-0.1291022666937576 
-0.03472655866680466 
0.157028909884334 
0.02740173095270427 
0.1266583297768796 
0.3400743694625651 
-0.04128584082016547 
-0.09878745869122825 
-0.006036132209973104 
0.08773747434941329 
0.2457700823135517 
0.01133915878316076 
-0.009052937200500905 
0.1257649969374192 
0.008273408534720665 
