solver_type L2R_LR
nr_class 2
label 1 0
nr_feature 1000
bias -1
w
-0.1312958384422468 
-0.09126227408746218 
-0.131927409331564 
0.2339292929512516 
0.0003001212160428958 
0.1802184798130066 
0.02612391159578104 
-0.1194191418683353 
-0.02816315722611257 
-0.3023254773403228 
-0.04174969914663967 
0.1157411781175761 
0.2024242122202698 
0.05249409471830482 
-0.1318941112568025 
-0.08283211518783191 
-0.1520676317754712 
0.0685947845193913 
0.01542956484285767 
0.1709980986210626 
-0.3051377211887567 
0.03426714634668686 
-0.3187656447186796 
-0.1543101515369245 
0.04845332919969778 
-0.1380245110239841 
0.186130926694222 
0.3206085021584569 
0.2128620474757068 
0.05269550342898116 
-0.06790378533528502 
-0.02636487645084344 
0.0394833993997657 
0.1344077071417308 
-0.001647727205791508 
0.2996440541102233 
0.1905040392001417 
-0.2195773999800335 
-0.2222386252329015 
0.02100845173140274 
-0.2738719255404201 
0.1161289547829691 
0.2284354184408 
-0.1472505369417014 
0.02110637443680458 
-0.1290061429210703 
0.1330531740311543 
-0.01538900157048052 
-0.221762472757573 
-0.01132346712052767 
-0.4975465969472128 
-0.7017776250961086 
0.3326070530368653 
0.3728245632252526 
-0.247635625492048 
0.7171490496190531 
0.06623617528749877 
0.1820888229225337 
0.5359016482991109 
-0.09218547448128449 
-0.2429234329039175 
-0.21454630286664 
0.8109783278485213 
0.1959395459222205 
-0.2134699222195188 
-0.1332333218847831 
-0.3250955504292493 
-0.1020360923373324 
0.2111527016467638 
0.4792138443229272 
-0.1527927425912359 
0.1704280187615226 
-0.7505765960818084 
-0.07923052013234193 
0.06138171426955378 
-0.02016870202270923 
0.5012504028612679 
0.264455562685933 
0.7363780598393541 
0.3623722836485534 
-0.07860312469705791 
-0.1760279752385598 
-0.6163951954169965 
0.1521523338031011 
-0.08177660912957099 
0.2370039791563344 
0.2988744031223515 
-0.5530028066501453 
-0.09516370991853534 
0.0915807131103117 
-0.4665963668296261 
0.3013839796498921 
0.2870506729743988 
0.2822983104754717 
-0.2621287278636794 
-0.4325061422590371 
0.07841036980176763 
0.02334448004278515 
0.06710379340716836 
0.4748820575106952 
-0.2180887127545275 
-0.5858342045296867 
0.4824624179333916 
0.5296996104104069 
-0.27996258462682 
0.7758837626504935 
0.1741178928525619 
-0.09671238085661717 
0.003737210490779685 
0.07645699946388892 
0.04834672346180877 
-0.3325880030873516 
0.6583674921965582 
-0.04637147221117944 
-0.2671752614835711 
-0.1839217588363592 
-0.04564173195457862 
-0.04986608324464874 
0.2550052960614895 
0.4219938589383874 
0.102137758026551 
0.1993995103475821 
-0.3783744745089698 
-0.2295225189215369 
0.2976062790727396 
0.05850629238383636 
0.4474652897963347 
-0.2212438126278197 
0.4984852157615466 
0.3563960477388411 
0.2344869535510467 
-0.3300821257439737 
-0.5975351405216821 
0.08121405307849337 
-0.09100110245977698 
-0.02157965764399979 
-0.5231444484236452 
-0.571487102523502 
-0.2417055400105587 
0.05097928106287036 
-0.2150801372862167 
0.1037099787957388 
0.323363894182286 
0.2996284734588458 
-0.6851658462753526 
-0.3278548021343661 
-0.1587080775047215 
-0.2317899212735714 
0.6778522236025795 
-0.1955868737156366 
-0.1859862357674689 
-0.1277966790439011 
0.2387483784094988 
0.1874056109345186 
-0.1716844485581527 
0.3997428711465745 
0.254782711821447 
0.2690431920155765 
0.733734722571844 
0.6090900555828399 
-0.3711286741849087 
-0.2698858797794825 
0.3405488518103116 
0.7077987805257812 
0.03073855818136517 
-0.1136867332121369 
-0.182363262061977 
-0.01723487695233622 
0.1136785808800772 
0.08423601447631786 
0.4113438323822458 
0.007758891481646662 
-0.4252652093851824 
0.3462127531594707 
0.03624670896474061 
0.0745212140068366 
0.0766219171531944 
-0.1535708267685219 
0.2308900704267269 
0.1119072884552896 
0.2337915073970893 
-0.2527686196587388 
-0.6898450853603389 
-0.1220505047209654 
-0.1471068016661961 
-0.1188778906887763 
-0.2304813907760938 
-0.1500399594289115 
0.4690778754032015 
-0.3584702896925093 
0.2947895432455089 
0.03917814675108873 
-0.006979557318725384 
0.5814008731722404 
-0.4218165849576729 
-0.2271745459032884 
-0.2049948787991497 
0.06173087792812527 
0.8028535344493143 
0.1704382128123187 
0.2874491943614181 
-0.5834383023553088 
0.3637215480173875 
-0.4339944390085206 
-0.1515656096682009 
0.1418460896187119 
0.004400711944802618 
0.4811879044487289 
0.4687012941224927 
0.6135947033490672 
-0.128473708391182 
-0.3487335056454269 
0.1745858469854024 
0.1799485271133578 
0.1613740451543619 
-0.02494280467968434 
-0.2631936840532152 
-0.262878176608144 
0.1435088573656706 
-0.1046938504154029 
0.4230290151528361 
0.04356416453853571 
-0.1172821630532152 
0.08660341135180158 
0.1192713464585959 
0.2990052591133638 
0.00834204344678542 
-0.6817432101346216 
0.07312496603662963 
0.07467628348107164 
0.1585434832311867 
0.08701972301007985 
-0.6265876539556943 
-0.3414305536499355 
-0.0584072025247199 
-0.4427981455831382 
-0.605060559575774 
0.2660160434697035 
0.1969434288092828 
0.1505240308541597 
0.5761520877692566 
-0.06962416200047276 
-0.2998274993683153 
0.6413814202998326 
-0.2789368034684827 
-0.2333496787683109 
-0.2679964947175771 
-0.1837959991803342 
0.8548682979358529 
0.04140932752340551 
0.6930022144585991 
0.1624732424820514 
-0.002412404417293124 
-0.5944082054120198 
0.2289457343937946 
-0.4061953779715146 
0.005462845330538759 
0.1265627244753373 
0.2270555200819271 
0.8202465576668168 
-0.03239456790792015 
-0.1176564567829814 
-0.6698756556655688 
0.003434580035293421 
0.216842170213767 
-0.08263164305019627 
0.05206903529460986 
0.06773373176247743 
-0.02465895237900638 
-0.4523690266047858 
0.7011417701244054 
-0.07128800532854829 
0.4719209319713703 
0.3368292770914963 
-0.08928992934088849 
0.0655040120828371 
-0.4483811769380017 
-0.6433980548153497 
-0.4775180507833791 
-0.3165856413974513 
0.09536211155299947 
0.1841035721651027 
0.02584310476904995 
-0.3573027492716503 
0.01063568127669882 
-0.5400989633124279 
-0.4179912037158227 
0.6493843106136447 
0.3262638919893656 
-0.1651585047393412 
0.7597735241330225 
-0.2259039154061046 
-0.6692936863501007 
0.3789740241504509 
-0.05172473906288316 
0.3275622558726178 
-0.2844788810944919 
-0.2197911228472496 
0.522939707352678 
-0.2412479590237432 
0.3710397974883015 
0.2332958059713949 
-0.1524656948302421 
-0.8357723843161498 
0.1384447884699527 
-0.5052789688733934 
-0.2911551747031124 
0.4801979468419117 
1.014545641210815 
0.7155242700922223 
-0.2736247510282387 
0.0675585632286044 
-0.459797376234571 
0.4211769318695689 
0.4797641926286843 
0.1336095268196672 
-0.2833388493056249 
-0.02242802159584216 
-0.0729441173897489 
-0.4564532362464642 
0.398822606779312 
-0.1649755489347648 
-0.1544654040797852 
0.4563068612627336 
-0.332556617805685 
0.008656738889215766 
-0.4201893204128974 
-0.2547659720583186 
-0.2439413730955715 
-0.2708095361200891 
-0.1785776218496808 
0.2938944078051953 
-0.03691920288535648 
-0.2876080989450268 
-0.01213118334955007 
-0.4663130507655244 
0.596739763508892 
0.825040800635664 
0.7150731027065947 
-0.1833432956689587 
0.4644045964949234 
-0.01119562414622455 
-0.8360221651498715 
0.2880719334161899 
0.5284844614372782 
-0.1250008054565658 
-0.02052173880716656 
-0.06833912735693276 
-0.2865218135722193 
0.5468126492608022 
0.3770497924437742 
-0.54194686113958 
0.3348830320389912 
-0.35450728432311 
0.1380419017539091 
0.03967679902773712 
-0.3744686840703338 
-0.2638763350783481 
-0.4498248404366785 
-0.06022658842651758 
0.3457759815892081 
-0.2055330430614151 
-0.202398956127512 
-1.048518703012139 
-0.1328444882433833 
-0.1539702471953408 
0.05205808918468198 
0.06341048874193825 
0.166753969809263 
0.08636304098214717 
0.3729826219356304 
0.2033866571062901 
0.2348632679756735 
-0.04838051637199337 
0.06375336340246894 
-0.08862399587913204 
0.08618822807785349 
-0.2488882174632234 
-0.04391212249493784 
-0.009646326459060699 
-0.1604233610509269 
0.2379629427886773 
0.1948646928091236 
-0.01304221441315083 
0.08672195476226649 
-0.3318616461074488 
-0.06091377558295785 
-0.03045956188924151 
-0.3274955747926288 
0.7060595921330536 
-0.1480884190389171 
-0.02502309383483097 
-0.5135764229236461 
-0.0390565604214843 
-0.07117916831241493 
0.1971750359965301 
-0.07413119202009656 
-0.6942252078154679 
-0.2888837533891961 
-0.2015319750528481 
-0.188956189414989 
-0.007482491638780498 
0.3272581279163981 
0.1356739098774675 
-0.1153104161460456 
0.3924311743358218 
-0.4281805158565029 
-0.3023054173830479 
-0.5558544657575192 
-0.7393591044294535 
0.2382423279731028 
-0.1239493656200982 
0.1936140209540574 
-1.088728484330824 
-0.06309971992666795 
0.03854797416638045 
-0.01883575986881 
-0.1516618147623697 
0.08089674064326009 
0.3296956091065484 
-0.3476463402275707 
0.1467772776639735 
-0.3543659075851759 
-0.3404853140402257 
0.01694599773188969 
-0.0271586418079779 
0.3318053160165773 
0.2823081291510141 
0.1672326371989845 
0.1981457432640924 
-0.2789637835909755 
0.06096621788506716 
0.2358446060115983 
0.1772377205245634 
-0.01719188915816813 
0.03024232686181186 
0.6413720791481754 
-0.6412872593937028 
-0.1567093482284435 
0.6783939673610007 
-0.9058741404296735 
-0.1062216427914711 
-0.2059955394528935 
-0.4782155899892337 
0.1689506190792285 
-0.01095712031688302 
0.08539071674696162 
-0.3346301798999967 
-1.121615999787615 
0.3440775855731499 
0.1973982063950845 
1.162838160022185 
-0.4222193076799308 
1.778311124714339 
0.03330878954718623 
-0.8072436496787904 
-0.04225675884902658 
-0.07153563980694845 
-0.5553239755017415 
-0.837822543902268 
0.07456594076620432 
0.6227894873018383 
0.8971455129136962 
0.6554097118871633 
0.3936782817054924 
0.4086618073874979 
-0.0007595557176180026 
-0.4772033570730605 
-0.2097674361868858 
-0.001381734194189868 
-0.5245182959469585 
-0.1488407926866406 
-0.1470901112924701 
0.2336055424711115 
0.6342566499368754 
0.4463974422898509 
-0.02218569654132091 
0.9023682902753863 
-0.9177109908457606 
0.01321151278228679 
0.3469571330045587 
0.2821539639377788 
0.2234364354375463 
-0.1892360504901365 
0.2593798209020257 
0.2561509640821075 
0.1620828832933048 
-0.3717001974599511 
0.4694492350761243 
-0.2394547904444799 
-0.6614659300878132 
0.02618020085726121 
0.1448989770267592 
-0.9376294408923589 
0.9814257507012702 
0.4346926178450174 
0.6248288196928042 
0.07762540711082216 
-0.2120685319048339 
0.3125297940499205 
-0.07269936671264128 
0.3286238733162148 
-0.3349292762017048 
0.1595589971983109 
0.1536957202410824 
-0.4578551959073285 
0.1298889497732472 
-0.3008501486559255 
-0.630601643114595 
-0.6341196547513643 
0.03709801739345199 
0.238828499953138 
-0.2525253072933444 
-0.1713786324192357 
-0.09427759490530496 
0.04259369569383378 
0.2104344631405069 
0.04921425853831592 
-0.2335377560681028 
-0.08970380645326914 
-0.6685584192982017 
-0.09979014517507651 
0.4059546497965586 
-0.3254341036460477 
0.01144144048462285 
-0.06850575063615648 
-0.09066625047460923 
0.4753653190361863 
-0.2753557646856113 
-0.1619985508150601 
-0.08688967028027489 
0.05101796881611693 
0.5496547744342685 
0.1877383635594456 
0.04311344181813481 
0.6503815138202383 
0.0738091016807752 
-0.2155856722978009 
-0.1882653494205039 
-0.1148959399644507 
-0.06399853496205368 
0.02723590795479661 
0.1534547350988549 
-0.512976463970187 
0.3595338691790477 
0.4956758754827438 
0.2619192309562229 
0.04132680748763246 
-0.4640958464878253 
-0.0539190461578762 
-0.1303347541215439 
0.5612476201917973 
-0.4473571765626772 
-0.001357489339128879 
0.0908973285583515 
-0.5159098871229706 
0.1873291080968701 
-0.138251060140061 
-0.291428186943991 
-0.3682051208688985 
0.1529303970070728 
0.4111361132079639 
-0.360029244551582 
0.1964344050232616 
0.05541983149659275 
0.2625140931930004 
0.3144047706935302 
-0.08275604154926376 
-0.2652754668954831 
-0.1834790068304941 
-0.5606497974272465 
-0.1797351770419135 
0.510275653573534 
-0.2349725566995883 
-0.1061833787646302 
0.07426615927501361 
-0.2388944021908091 
0.3418342391799455 
-0.3023657433617281 
-0.1136903893174197 
-0.08411456150559178 
0.01196929253120367 
0.5919753960342117 
0.1834966160301878 
0.1003922418539798 
0.4582122939262875 
0.05341491813644617 
0.1619904446114882 
-0.280706459407447 
-0.2262705754781862 
-0.2972852717222372 
-0.05341624676815334 
0.3510988721200301 
-0.5496302794447206 
0.4843461748926964 
0.1853514741030029 
0.2618448624592133 
0.3924648280943115 
-0.5026957108780994 
-0.09347395778647918 
0.0370562500228146 
0.5857219749248118 
-0.550679342199059 
-0.07732576316975215 
0.07951079377347041 
-0.4583781137714629 
0.1906480721953068 
-0.1089112285349876 
-0.07189060684315285 
0.01559170867431452 
-0.008687773402801153 
0.3479865405155124 
-0.3379931153252344 
0.7237505345736286 
0.07797669024470777 
-0.03220053216494957 
0.04156483077729946 
0.2090513327426875 
-0.126709721539477 
-0.1764351859304623 
-0.1942044762031674 
-0.1293538970319532 
0.09502606733263146 
-0.04125205322750775 
-0.05001655232433501 
-0.1449917862840349 
-0.1970550281079886 
0.001500767173621518 
-0.124362418394249 
-0.1677688962714678 
0.1990860721000141 
0.01050388340151324 
0.3978771940232432 
0.03787306224296759 
0.06163683030236437 
0.07301016544661926 
-0.2068494341225997 
0.191967195779563 
0.1786776354905709 
-0.4337114218029546 
0.1835001182300575 
0.07523671768167946 
0.3011901102340178 
-0.2284133218048153 
0.1484173213657806 
0.03536862504996575 
0.1186074018823605 
0.4060207545508077 
0.1615465734983237 
-0.4534543386809622 
-0.2379851277704659 
-0.02722316369485948 
-0.2614697793693408 
-0.5988381499590403 
0.04153644847043562 
-0.263861236522222 
0.3907162812301123 
-0.3214256558873732 
-0.3126607663093661 
0.2133869065352096 
0.04596384849918999 
-0.06103218126388922 
-0.9895112783964265 
0.1334144220711014 
-0.1981749475567989 
-0.07726890313675716 
0.3538564446025486 
0.3862671579072682 
-0.1695562390994527 
-0.06886222381264534 
0.2388159100344724 
-0.1470138779732245 
0.5769539822581293 
0.2197323064856645 
-0.4916094474853709 
-0.2674676280463525 
-0.3470865521111532 
0.1076158058526894 
0.1416270876403496 
-0.2817908721781219 
-0.08518039523854712 
-0.3604868279839107 
0.3487512394365976 
0.2302021465355883 
-0.09884010986403863 
0.2551272910802019 
-0.4691487371136276 
0.1730934946056077 
-0.05573632265179505 
-0.3532390881037438 
-0.3962646442859756 
-0.01311706158045999 
0.4906379213418936 
0.2081562767797321 
-0.3867720493446618 
0.01266815337120823 
-0.144550910817235 
0.2845882612532576 
0.2653463929701594 
-0.7327249793305608 
-0.2082419323190521 
-0.4049673981636361 
-0.04992975958831238 
-0.3519796684586065 
0.02709806647034582 
-0.04067464340068674 
0.0664488247183784 
-0.1400706010873232 
-0.04057504998749865 
0.2198472416762357 
0.04329795844135122 
-0.07694343019711691 
-0.2583528878337195 
0.08606351997481676 
-0.1489297401783524 
-0.0238788617115337 
0.1736129970350231 
0.3086182659051525 
0.009442287422306635 
0.0223870573322248 
0.4363487171741779 
-0.04333801695711422 
0.2775810443913395 
0.4153599261140644 
-0.2915782857109588 
-0.2043816967843816 
-0.1406258194330068 
-0.01185804297259777 
0.1706720234198388 
-0.08821608014619317 
0.004084153817849412 
-0.2515663144700183 
-0.1093458248818547 
0.0489194718866906 
-0.04148546450818422 
-0.1978660504211183 
-0.2410542812192679 
0.2137614043064282 
0.1520884821515201 
-0.1392232729321017 
-0.07810367147087723 
0.02675875108682317 
0.278950608968 
0.3235231044174116 
-0.3582046175660838 
-0.3011378972418451 
-0.1248847084856303 
0.2201891027645146 
0.4244068462071222 
-0.359180463687342 
-0.03498270395881811 
-0.4497022227269988 
-0.00545514943957775 
-0.4405065908164224 
-0.04689701716431031 
-6.676965729677728e-05 
-0.1310900259802962 
0.04519952921740347 
0.05800056663644644 
0.05717864751978173 
0.1457796677910454 
0.04809587196211242 
-0.06810409259555666 
0.006770145340469876 
-0.05878640230195867 
-0.02426533506346171 
-0.01075865295533635 
0.1354976318028599 
0.08897866222150919 
0.08707053275138041 
0.09714428543090327 
0.03925751899447523 
0.04267269026992992 
0.07206865446806072 
-0.1616282346822521 
-0.130477928507633 
0.05196615019838605 
0.002826671185291981 
0.207890460351644 
0.04015702954462484 
-0.03146049393328276 
-0.02790497462951361 
-0.01242818866951864 
-0.04984068791296092 
0.03238373120210553 
-0.1022876847601072 
-0.003008756794880094 
0.1720814515651354 
-0.02707313924263285 
0.1050345208535962 
-0.1372314267258098 
0.08766401074601299 
0.1982785707242353 
0.1475033287405201 
-0.1318233061985367 
-0.3923790764870159 
-0.03615204550491334 
0.05646144494580221 
0.03694090103203645 
-0.123671263374707 
0.07424219238212164 
-0.06098327889939954 
-0.0303038463861996 
-0.1809264892756648 
0.002445144271170614 
-0.07905082138738544 
-0.03147807756127442 
0.03968628310647206 
0.05020613791898337 
0.1241871696291385 
0.06440487887429874 
0.0001119343532655498 
-0.1478482327993063 
0.03867075767089551 
0.01688844158626937 
0.02508899341017878 
0.005637459445274734 
0.0457696760793662 
0.01228356287855749 
-0.04670034022428992 
0.1327218904773629 
-0.01030782098171911 
0.07832484948816713 
0.05725469284677732 
-0.05340661217311003 
-0.02429656846348296 
-0.05439854413460798 
-0.07318871405271633 
-0.00907041195642597 
-0.02797473982314558 
0.01484119387547809 
-0.02455721148656575 
0.02641183442951426 
-0.09072512742957289 
0.0162421888158788 
-0.1294354773125855 
-0.05587134836028997 
0.1038404806928025 
-0.06514464923131853 
-0.003973855251772525 
0.04715225879811437 
0.08984385556039376 
-0.007309373331505772 
0.06706673808332683 
-0.02455274062718566 
-0.09693608707678761 
-0.01383879914786589 
-0.05915093068725764 
0.05981452882548877 
-0.1287262622007906 
0.02225152267517341 
-0.01554303476538501 
-0.05550553500526832 
-0.02919880057712649 
0.02173726572934195 
-0.03757001564356915 
0.001406958099047352 
0.04810361416054321 
0.04500334562426546 
0.06759183129079238 
-0.03165500846526492 
0.02643193070907648 
-0.01839621842682137 
0.1202985032299496 
-0.01044893795136949 
-0.05639967874321483 
-0.03173831665006802 
0.08695626894107955 
0.01527805181796952 
-0.009211679933544849 
0.0826690578677708 
0.0007033528265235666 
0.0008611363238369323 
0.1017632790943338 
-0.05090496245492771 
-0.0698150334596363 
-0.0178877701942268 
0.01297316392162997 
0.01256328586710916 
-0.03240420073346845 
0.03641014622070305 
-0.001194837246561019 
-0.01878187199613822 
-0.06555784552783089 
0.005386656476875606 
-0.07811308954664291 
0.02811065622567044 
0.06102055170330321 
0.03208875455443572 
-0.07785662324520755 
0.1061996591983551 
0.05057771063911898 
0.0435391547705312 
0.07783826802961304 
-0.06025630850932929 
0.005339360766810226 
-0.02232842808736703 
0.002738550792492179 
0.1146381106505091 
-0.002651038059715089 
-0.04255872993707689 
-0.0394385531371989 
0.04535460635256101 
-0.103875911408814 
-0.04756587605824632 
0.02504642388196911 
-0.03953749494822664 
0.06482776779021072 
0.05785325705398893 
-0.05397901909905908 
0.0552685614502385 
0.04304824055876293 
0.02923256101940057 
-0.04604306364949108 
0.004362909592519957 
0.0205498670449031 
0.02458035868902881 
-0.07016132192165488 
0.004870412277331754 
0.01832832930615333 
-0.1506549835266056 
0.02131946713862563 
0.01288078081857905 
-0.1515171015023328 
-0.007153309964251278 
0.02654062591152836 
0.04800238166567902 
0.01036435516294717 
0.04656461530372029 
0.05789575974553719 
-0.05694932576790019 
0.05373570122332846 
0.06326667193556196 
0.03125900423754313 
0.01640207538934064 
0.1101901489379554 
0.08409401918821775 
-0.01759153056471328 
-0.1664164107695373 
0.1076614215730451 
-0.03602200563023096 
-0.006174682694015914 
0.03123630033695206 
-0.08785911791911954 
0.06885289074379715 
-0.01872654153717945 
0.0195040486329167 
0.03210585732259494 
-0.1980662009945477 
0.1150100263142415 
0.1793570860787505 
-0.06937387901179644 
-0.1183549996389539 
-0.08450257297879352 
0.08312018819130373 
-0.2122955275284749 
-0.08897588488916824 
0.06197282093363846 
-0.1933615622689999 
-0.1265010507230252 
-0.03649449616279441 
0.06479103897396953 
0.01374914849381673 
-0.03943153809742761 
0.02703967400353339 
-0.1003679609854203 
-0.1261812659425638 
0.03867894962878317 
-0.0162151509376263 
-0.07060420082846017 
-0.04031114916415499 
0.006249694391344185 
0.01088479160091295 
0.02568394636324508 
0.009199349829696425 
-0.05269420784416627 
-0.03350890687431306 
-0.0377076153747171 
-0.07043468841736152 
-0.1068785447192613 
-0.006414641270417722 
0.2227008841602762 
0.07290384664979151 
-0.09048955791311775 
0.03927148562870332 
-0.08953087651905897 
-0.02420088526980133 
0.1229985148649611 
0.0146000081003607 
0.1190104926589223 
0.2316250277484257 
-0.0306603089745616 
-0.04882645184969811 
-0.0163905579151534 
0.07587977540852908 
0.1790960498208855 
0.01456863726459815 
0.00534362826244592 
0.08094073323469889 
0.00739402746080278 
