solver_type L2R_LR
nr_class 2
label 1 0
nr_feature 1000
bias -1
w
-0.1975407921303048 
-0.09589989877074194 
-0.1265576438772965 
0.2212371153221748 
-0.03219422718395461 
0.240535335581794 
0.03679042200837015 
-0.1282295885052024 
0.01689130006695609 
-0.3194742398917062 
-0.03439583690863142 
0.1263812633680423 
0.2220200985882684 
0.09489028855482008 
-0.1410417231092267 
-0.07906034092815109 
-0.1607502222721975 
0.06334943516742794 
0.02723649123386804 
0.213780012075505 
-0.3498964687444224 
0.0410884937465315 
-0.3812885549113171 
-0.1880110251616686 
0.04018709373991906 
-0.1448518672086796 
0.2250975578990001 
0.3582218849197216 
0.2736577299446893 
0.08887009036356525 
-0.06991206886279393 
-0.05667172194559223 
0.04143832557551409 
0.1712892925759922 
-0.007199262876509882 
0.3449370676421012 
0.2160800027097628 
-0.2676333812045843 
-0.2422912466875251 
0.03022620580191783 
-0.3686893837005695 
0.1279858017173458 
0.2782677897513934 
-0.1660021403721139 
0.01406826563774254 
-0.1998984465970268 
0.1436425956384701 
-0.01374747720598329 
-0.2767166618632932 
-0.004032016773255174 
-0.6788691190105982 
-0.7661381816225217 
0.4110507903470407 
0.3609238478016743 
-0.3483861926177717 
0.925178836236795 
0.0868834311000557 
0.1945233429021116 
0.7070701214244122 
-0.08410290592705494 
-0.2453701795768093 
-0.2403648711464489 
0.9211215706916068 
0.2943138640428488 
-0.2425178363092685 
-0.125910547991713 
-0.3481626148258038 
-0.1202688928743249 
0.2652645169822253 
0.5978393164590105 
-0.2281816704877165 
0.2008834387416499 
-0.9225351161355057 
-0.1592856214263081 
0.05264081465519052 
-0.02437386683079915 
0.6240650592152488 
0.3088969057270301 
0.9163159023306551 
0.4839094604810816 
-0.06348444532339698 
-0.2838643280446985 
-0.7001328049361129 
0.2197285718982274 
-0.10869606246493 
0.3065195933677459 
0.3699715502711152 
-0.6972312909077292 
-0.09808711177242418 
0.08598267353349646 
-0.6296580674284051 
0.3565473957519376 
0.3801871062128019 
0.3020680431965253 
-0.3292546893173118 
-0.6320187591899535 
0.08196412867047768 
0.01402693428454547 
-0.004434408335792617 
0.5457584255143278 
-0.3228547311835258 
-0.619950441891412 
0.5439275302138965 
0.5622985177119239 
-0.3410024761887884 
0.9145765208787819 
0.1944421395251612 
-0.100962251390388 
0.09157426214133538 
0.08987750040531536 
0.04536839198666168 
-0.3664246231147365 
0.737067058205548 
-0.005725799715593033 
-0.2884436864219375 
-0.1712333909498534 
-0.04621520715662699 
-0.06403730114453006 
0.286778494480684 
0.4910205906715994 
0.07647323316865942 
0.2145132952877912 
-0.4704060384239541 
-0.2677085464177006 
0.3023170672815599 
0.0663820493850288 
0.5175234996878152 
-0.2068217555527944 
0.5940366826706012 
0.4310550468899559 
0.2542786243608179 
-0.4184853204193674 
-0.6747598343469735 
0.1095415186661099 
-0.1131752515643017 
0.002406169770940436 
-0.5008594285399164 
-0.6738158921935495 
-0.2269130990363483 
0.02480296727047566 
-0.3044076906547271 
0.132548702135101 
0.3743177375157402 
0.3241555347960698 
-0.7455786217403834 
-0.448764869190139 
-0.1650682725756717 
-0.2315329184542666 
0.6698425857162978 
-0.1634506764716788 
-0.2470802145010073 
-0.1257451674114054 
0.2620954306839749 
0.203917387230975 
-0.1951380375371955 
0.4878301030873985 
0.2835347124133321 
0.2720091770900315 
0.8314063733639535 
0.6580355817606621 
-0.3995630009606498 
-0.2914809744986541 
0.3847721238177688 
0.7830639873563748 
0.02228585095141335 
-0.1129295288599436 
-0.1916544845999534 
-0.007544731658089571 
0.1346147027619835 
0.1103116198960886 
0.4223902686759136 
0.01095618061349558 
-0.486164596964663 
0.3517796398207362 
0.03378579534126756 
0.07139069134526631 
0.1083973872244898 
-0.1581733442458518 
0.2778904638137703 
0.1496252843104281 
0.2684957319721318 
-0.320737111613985 
-0.7586540340545787 
-0.1236705535208443 
-0.1651981002344243 
-0.1348261891800603 
-0.2157485627669975 
-0.2047739783237713 
0.5143534649422569 
-0.4178627389165453 
0.3075876853414705 
0.06129410821912999 
0.001073532869300065 
0.6224906819924398 
-0.4687253261732776 
-0.2974881903627401 
-0.2163935735704791 
0.05564750158913347 
0.8427378952402518 
0.1987979818650888 
0.3442501085516134 
-0.6143015458226865 
0.3782982805301218 
-0.4169688768342323 
-0.1342108481621682 
0.1473256729518302 
-0.01148597007661809 
0.5133941574754017 
0.4841976879917868 
0.6461187084934571 
-0.1631778252078489 
-0.378490491295929 
0.2145769717902776 
0.1668464036187494 
0.1701705755642146 
-0.04050196303010905 
-0.3038090416037414 
-0.2642724376925594 
0.154137852049708 
-0.1276259820598015 
0.4651069680446193 
0.04712874553396832 
-0.1364883613488739 
0.1130355748236145 
0.1439676791726261 
0.3074363873263315 
0.0072771646742107 
-0.732363907097379 
0.0490065319606208 
0.0638109499963323 
0.177379236714176 
0.1049186193802748 
-0.6912178874320963 
-0.3982003359372995 
-0.06322178062770036 
-0.5078096088163179 
-0.618467639963403 
0.2819721156665477 
0.2420229453682529 
0.1420186860719565 
0.7020495409697138 
-0.06848955652544345 
-0.3644988706278065 
0.6963800878412776 
-0.2960376906840904 
-0.2143108780190467 
-0.2867780812318439 
-0.2108642425377964 
0.9384430833857436 
0.06416821567552262 
0.9082932123426899 
0.1931909183994982 
-0.06138915231243552 
-0.5908424860930667 
0.3502979553533045 
-0.5674914987121845 
0.004449007088412301 
0.1324359666104839 
0.1309632667715507 
0.8868375259256744 
-0.07139346402688065 
-0.1195226999221689 
-0.7722535185936212 
-0.08188861398365517 
0.229826359743417 
-0.1350162865974185 
0.04660604125668365 
0.1099529652132592 
-0.05530228854073745 
-0.569142704766249 
0.8250128883455289 
-0.08692702314408889 
0.6246334587079232 
0.4399519800758101 
-0.09084680004065758 
0.0518113303144396 
-0.5599252418431039 
-0.7136617385348795 
-0.6373487438417555 
-0.4389039726694496 
0.09179476681451988 
0.2833279728941037 
0.05738755008606237 
-0.4666038097436279 
0.03077087884657348 
-0.6455396635095705 
-0.4686908287551176 
0.7781573256131671 
0.3504997045042982 
-0.2031819441015156 
0.9965259100042909 
-0.2651506529550237 
-0.8115521261801422 
0.4285860755098033 
-0.02968202884864264 
0.549046339848729 
-0.3117513776593807 
-0.2384520321156685 
0.6556846259280193 
-0.2715305426512166 
0.4976898004954703 
0.2706831073964446 
-0.2041630066867357 
-0.8821207145941975 
0.1966919751445988 
-0.5780182701405089 
-0.3056412721184432 
0.5195659421816035 
1.023754136552751 
0.769101479632372 
-0.305547489106195 
0.07909805349333361 
-0.5280311548354459 
0.4228024584504796 
0.5074879895821096 
0.1090612875261908 
-0.3325060992229311 
-0.007093457926166238 
-0.08268083401270204 
-0.5248549150756093 
0.454059470518151 
-0.174771606789831 
-0.1307810269979016 
0.5027243452172756 
-0.334786226472406 
0.001197567441763164 
-0.4713719621004226 
-0.2942076074911743 
-0.3222219107914459 
-0.3316047024011748 
-0.1783256893997461 
0.3582112913215399 
-0.01601764738941941 
-0.3672675445296947 
-0.001113493107086454 
-0.5307996562795034 
0.6012121829207975 
0.9112570377649971 
0.7288186835612234 
-0.1938999121368357 
0.6110213176579851 
-0.0178374229445954 
-0.9262236608602777 
0.3205630248520318 
0.5605255674321475 
-0.0490408122140602 
-0.0336739907007674 
-0.1004494725782185 
-0.2471444385514832 
0.5377146229677556 
0.4649106351251082 
-0.5862380575395004 
0.3513070261843941 
-0.3760009634358517 
0.161498548501499 
-0.004640699409385843 
-0.4147311106407922 
-0.2469002282860059 
-0.5049968627186177 
-0.06004586336457521 
0.3591197670025104 
-0.2177657797118862 
-0.2262425535978926 
-1.148541017037685 
-0.1330857373737442 
-0.1833737401273955 
0.04142687240585367 
0.05990345729156359 
0.1701215262903799 
0.06938742484253871 
0.4034958491721153 
0.2182281801557295 
0.2707250873422177 
-0.04946960483047676 
0.0700571213593459 
-0.09170937024962333 
0.07248534203223962 
-0.2844118677867862 
-0.0679775041060474 
-0.03718241144806816 
-0.1927674229489279 
0.307086066593276 
0.2181635271339135 
-0.03699412690919918 
0.09939253322798082 
-0.3524561181030375 
-0.0625314788298969 
0.01619876824336484 
-0.3554128623489705 
0.762172657206718 
-0.1177485529601691 
-0.03616278650186727 
-0.5630541817399798 
-0.02989377143626819 
-0.06298172639469615 
0.2685713658922335 
-0.08648596520526583 
-0.71275356132184 
-0.2956565267473482 
-0.2041624806787199 
-0.2465655536466501 
-0.01680841735826231 
0.3596173269127956 
0.1034508133900194 
-0.1873826810241708 
0.460468419088544 
-0.4685225266598466 
-0.2963240021373842 
-0.5484063154764692 
-0.7995573768357126 
0.2821829259117929 
-0.1206137178430241 
0.216591108426999 
-1.102647491815359 
-0.05545186033202359 
0.05529137485803872 
-0.04227018714384376 
-0.1883679103126473 
0.09859752643935321 
0.3893297640971017 
-0.4323169635705575 
0.1628065839411973 
-0.4628683087822364 
-0.4344744863560864 
0.02936387404109318 
-0.02055836426313047 
0.3957856928652898 
0.305875443602748 
0.246327042989485 
0.2529501457765289 
-0.2991346059016589 
0.0535327529590319 
0.2621251968976152 
0.2229212316128112 
-0.02320573778793061 
0.09478139126602426 
0.6745381195105964 
-0.6999153539170411 
-0.1960508107492649 
0.7571905319940181 
-1.0594082236521 
-0.09228734625246401 
-0.1499537186943885 
-0.5291214232898924 
0.176413782418386 
-0.1206307812162988 
0.09601203511086653 
-0.3464625827050925 
-1.251327630276507 
0.333106511709727 
0.1917833970914008 
1.261287579548277 
-0.5196008034475674 
1.856412207013028 
0.06143792490927463 
-0.9275179814213411 
-0.03146222584484425 
-0.09570837213573835 
-0.6397706481302956 
-0.9171247899479819 
0.07339285475662344 
0.6915485254085989 
0.8984860057992875 
0.7272760088870812 
0.4303045025231676 
0.4777942783419097 
0.01672952676987598 
-0.5024728341041819 
-0.2709087235727129 
-0.05772770242273596 
-0.5497222156283156 
-0.2003773095158265 
-0.0998949719677148 
0.3013641582013268 
0.665904015388601 
0.480207689797414 
-0.09060664986069383 
0.9747265177941128 
-1.039834044989356 
-0.03555219355106932 
0.355762271465985 
0.3063860504585178 
0.2649969109274167 
-0.1719193756513686 
0.2716429368160564 
0.2955492063281868 
0.1008653303994699 
-0.2992664225889614 
0.4914972561168085 
-0.241029689928888 
-0.6516695255291837 
-0.02634572142651923 
0.1853427429866065 
-1.015574887826684 
1.074817547647398 
0.4498202559504679 
0.6654969335497455 
0.1359803185069741 
-0.1995087922897556 
0.2499571224954953 
-0.05919331565657827 
0.3237155272718614 
-0.3583459747773457 
0.1503997641658154 
0.1784068754207136 
-0.5319197787018958 
0.1303252699801645 
-0.3238626875412494 
-0.6960730634220519 
-0.6723374081725658 
0.05971406196731559 
0.2687330098492626 
-0.2853052793782025 
-0.2053122753210774 
-0.1008889526204221 
0.0422230207704328 
0.2469173056030552 
0.05388753736185144 
-0.2548673823593817 
-0.1070972526628365 
-0.690061252528643 
-0.1053581353174064 
0.4861693725776008 
-0.3284712463304327 
0.004598532276346698 
-0.07368387776271973 
-0.119206934425774 
0.4986331013039589 
-0.3107399947533148 
-0.1888287610501673 
-0.1095245860852803 
0.08761617268812683 
0.6098799589826008 
0.2170001053974993 
0.05822971948529292 
0.6906222840317587 
0.05799227475774613 
-0.1755175092627357 
-0.2285807884124937 
-0.0932665913508903 
-0.07765913267634503 
0.008049464282318841 
0.1633691018308937 
-0.55551161615362 
0.3959408041239779 
0.5603595824044698 
0.2789279820018252 
0.04828982950736476 
-0.4923463424886322 
-0.06543420158929372 
-0.156070927191383 
0.6141256360373677 
-0.4730607277720318 
-0.009278879445930812 
0.09088948552353508 
-0.5654772414402791 
0.2021190171483018 
-0.1631692874446973 
-0.3231276100599749 
-0.3890416930936673 
0.1883689642280641 
0.4428853568915533 
-0.4176885159937015 
0.2013200178113222 
0.05923775859429944 
0.2980198263401813 
0.3705679778930303 
-0.09011248651182799 
-0.2915731373569157 
-0.1974522196886742 
-0.5854964235383459 
-0.1969841148556837 
0.580102298092651 
-0.2448330724334355 
-0.1206753907213727 
0.0831641239392155 
-0.270442237974802 
0.374533327695403 
-0.3341602570607261 
-0.1228480004637718 
-0.09803422910000428 
0.001732493200727752 
0.6587639255978879 
0.2193318274187764 
0.1089486768071094 
0.5062275115243248 
0.04376400909688094 
0.1848067562833451 
-0.3224814493198321 
-0.2326767042241577 
-0.3604261411501294 
-0.06191277516094111 
0.3886184957938154 
-0.605155797662841 
0.5212528762459444 
0.1955386549122913 
0.2803385258348317 
0.4155454931635205 
-0.5620851629896897 
-0.1259166470156668 
0.05355884762923751 
0.6452477158453918 
-0.6037959894517124 
-0.08020065448908623 
0.1064614863912458 
-0.5090469043801011 
0.2060145215702245 
-0.1236381894810736 
-0.0942892269283391 
0.0167476684472162 
-0.01881667731837535 
0.3718710194530876 
-0.3796244650469924 
0.7613600774160687 
0.08709208843076365 
-0.03165041300622241 
0.044543636360959 
0.2302122411847287 
-0.1451257290455313 
-0.2077803907616882 
-0.1814996723859165 
-0.146246131232049 
0.122131249695521 
-0.009802631375149362 
-0.06170847632053222 
-0.1567332687183692 
-0.2327872704212985 
0.004920748539992123 
-0.1628865772678864 
-0.1999253883744757 
0.2113306876373676 
0.01684444766413876 
0.4305491817761879 
0.02645556604056822 
0.06628949441962682 
0.04977428725748566 
-0.2194416223351953 
0.216204848155728 
0.1916543810047239 
-0.4622298768428864 
0.221766228348569 
0.06832084029512497 
0.2991428799932468 
-0.2436784582861403 
0.1678783748295326 
0.06817416048163707 
0.1252667459816754 
0.4263155769029389 
0.1818220523441288 
-0.4846444656040962 
-0.2251150282039429 
0.004861686628107154 
-0.2816662786896399 
-0.6017012318114012 
0.05908454013348387 
-0.3074831070926689 
0.4265313732718384 
-0.3516363040510329 
-0.3363652979455253 
0.2462573947065641 
0.05317560943889546 
-0.05667830992283154 
-1.074818394101042 
0.1358494691851925 
-0.2115053691758999 
-0.09164410932073078 
0.3959994370261503 
0.41589502601233 
-0.1841974420923792 
-0.07605891527506775 
0.281035154669415 
-0.1548024106231919 
0.6431742916668379 
0.2569449571237441 
-0.5321072184233516 
-0.2880251659786276 
-0.3863807129534444 
0.1325350215829041 
0.1320100352324091 
-0.3132410276230623 
-0.09859203918180529 
-0.3752967040244137 
0.3949353278413386 
0.2360211487039746 
-0.09629238792284273 
0.2714580807034619 
-0.480797003381799 
0.1784228075478096 
-0.06806674677030139 
-0.39736594192566 
-0.4603822533093165 
-0.009175114311673494 
0.5129120227483558 
0.2105887257651873 
-0.4008329589839668 
0.06347675157248713 
-0.1475441606476705 
0.3144415127201969 
0.2716251318796176 
-0.7734564489772945 
-0.2160303051699998 
-0.4107142078331165 
-0.05081794758755535 
-0.3503145713743548 
0.03371897962551847 
-0.05051215125225957 
0.08851138325807742 
-0.1455022175920289 
-0.03267468803919446 
0.2475572830986735 
0.03173865186297935 
-0.08387148220035012 
-0.2744393580104572 
0.1059659809247633 
-0.1591746041983781 
-0.03560144797372936 
0.1909241125404354 
0.3291943462647969 
0.007816983691890267 
0.02252591385991046 
0.4684554734392692 
-0.0458669771738287 
0.304940177949659 
0.4510665697820998 
-0.3147977321645887 
-0.2166430773082345 
-0.1542638940297538 
-0.002396453129752897 
0.1758746150658166 
-0.09819021698386748 
0.008066419793254676 
-0.268947194380108 
-0.1185506885321947 
0.04214705140134094 
-0.04440489737356733 
-0.2034632688239884 
-0.2467751207769986 
0.206925376128861 
0.1707121093200689 
-0.1746946675235369 
-0.08020871973517811 
0.03252023011528975 
0.2905907039719501 
0.3484455961177842 
-0.3815030095027546 
-0.2835500504656616 
-0.1317381572692493 
0.2447592249168718 
0.4631924594725541 
-0.3582859284975347 
-0.05208790094675888 
-0.4770786009259563 
0.004091274907816776 
-0.4752133879484364 
-0.06008736869249344 
0.02270547405077545 
-0.1350352991261433 
0.04539791976680683 
0.07790629507948696 
0.06105603332790398 
0.1553254411964418 
0.04904873390810924 
-0.07246678513839643 
0.01203795586977417 
-0.06872265579186945 
-0.03638114440650451 
-0.01287787359710823 
0.1474832716070537 
0.1017770924307041 
0.1082047574684322 
0.08540385868018238 
0.04886357812331175 
0.02668159554654959 
0.05404187061019629 
-0.1754357493997617 
-0.1465161298433762 
0.07212524171806325 
0.0105597358439638 
0.2444850826429532 
0.05462315925703254 
-0.03350172675849844 
-0.0379834212800728 
-0.007852654542461928 
-0.04306612700074705 
0.03130098854652755 
-0.08912342348497962 
0.01298378516483606 
0.1557975648987381 
-0.03649038609867231 
0.1096850653178473 
-0.1661207705911297 
0.1023990433311816 
0.2160071016071831 
0.1530586820320768 
-0.1486350009476834 
-0.421766665585546 
-0.03856787342047326 
0.04789612836686072 
0.01695796100181271 
-0.11982530208251 
0.0894933215079064 
-0.05718874841177029 
-0.03580746414154846 
-0.1948645406557957 
0.009839661942232224 
-0.08462773462894542 
-0.02963533834682395 
0.04184672527695391 
0.05962591195836623 
0.1440626283368016 
0.0630364079917409 
-4.764665027567633e-05 
-0.1671015207615658 
0.04294552168728488 
0.01613684213724906 
0.0175757048080583 
0.004793795051582134 
0.05728540120448028 
0.01486914195737267 
-0.05266164125405201 
0.1484418497426418 
-0.009818051540778847 
0.08701668690399335 
0.06522105672315757 
-0.06248313380297595 
-0.03244408670738677 
-0.06066006121436872 
-0.08029028729906749 
-0.01183217676705499 
-0.034363312768248 
0.01803599771015441 
-0.02650124484077504 
0.03031871766743797 
-0.1053337478376631 
0.01751637196272491 
-0.1449823282936718 
-0.05114008305090486 
0.1100217221487332 
-0.06305051648719026 
-0.01849553014792533 
0.06204095216064785 
0.09825541262959961 
-0.01642246786155609 
0.0779466367259074 
-0.03054115053290649 
-0.09113715168890943 
-0.01796717133416745 
-0.06461776305909511 
0.06831505906671488 
-0.1327481517362911 
0.02989411190003752 
-0.01658440199437998 
-0.06671904461088436 
-0.03351265962520687 
0.02908300137312117 
-0.03906267756400661 
0.0007057572389738524 
0.04930553819606892 
0.04669721444577449 
0.06731006550394954 
-0.04258667340110501 
0.03122163903112073 
-0.01150284389205687 
0.1330679694127224 
-0.008358666695334693 
-0.06540367728389596 
-0.04634527916200121 
0.09466286955457009 
0.01671070723884516 
-0.01239194762850843 
0.08554606218579963 
-0.0003043475028769482 
-0.01106417050964566 
0.1138466677592335 
-0.05310845072607035 
-0.07648201909093007 
-0.0183429505344292 
0.01299634680496634 
0.01007813004114669 
-0.03846147832670948 
0.04313434990727748 
0.004762173819309375 
-0.02582393510624479 
-0.0762569356442015 
0.004952777390529808 
-0.0926390896140834 
0.02910936998461789 
0.06475360821428303 
0.04890228969263635 
-0.08175918332740649 
0.1260575941807553 
0.04408318017145493 
0.03833396435654728 
0.08480865548551608 
-0.0619617064460234 
0.005876105148619786 
-0.02477527868520031 
0.003010198257871832 
0.1312462898800379 
0.002166455108268584 
-0.05904210767527613 
-0.04744234457374374 
0.05330606589205836 
-0.1186721561155683 
-0.05930442046825635 
0.04132027139955115 
-0.04411405847155853 
0.06908536427670146 
0.07384366248949749 
-0.06070293296066503 
0.06362270412515381 
0.04782144044066861 
0.03446522985775641 
-0.04412746833097195 
0.002313380533065169 
0.02164953045432905 
0.02399003742762307 
-0.07656726813089995 
0.009240294226539797 
0.02972580411706187 
-0.1714757820150171 
0.02627652419646569 
-0.0009785861042229463 
-0.1740686041595354 
-0.007178722409464264 
0.02612227671103003 
0.06191428364818139 
0.017173112597284 
0.0643010300210137 
0.07113784207343522 
-0.06341512375194472 
0.05416851668308383 
0.07055914518139382 
0.04487309161912364 
0.01670786809521565 
0.1315449372536942 
0.09642367926348142 
-0.0259833956032208 
-0.1885103488204625 
0.1242323066543995 
-0.05685631940296539 
-0.002772786507992469 
0.04129250577084786 
-0.09899914268874574 
0.07231425693310461 
-0.03573597146983989 
0.02242629465967791 
0.02598766031226609 
-0.2299112777154404 
0.1240597814590169 
0.2359931251357184 
-0.08960899908747866 
-0.1453340481620691 
-0.08887396486758037 
0.1165581668207335 
-0.2616491044636773 
-0.106857086072859 
0.06362596093003291 
-0.2412405317319241 
-0.1467814516290043 
-0.04707594645306878 
0.07640413819722051 
0.01300443660011356 
-0.06551553046106548 
0.02870783770338067 
-0.1236738630906443 
-0.1504563329045693 
0.05306840874701962 
-0.02128543921384698 
-0.09278774477133195 
-0.03176800504065955 
0.006408679593799009 
0.02706495714849191 
0.04609059406405428 
0.01567364712555644 
-0.06572276390549212 
-0.04903464781395859 
-0.04446786055265046 
-0.1025620562928663 
-0.1394356300019602 
-0.01000063328120064 
0.2712394960824871 
0.08395191609696417 
-0.1135885995011802 
0.04850996026478951 
-0.1130579963091754 
-0.03344893099466961 
0.1609003178675288 
0.0219956446026882 
0.1377817276759151 
0.2940414450367771 
-0.04318802332761648 
-0.07709863218128604 
-0.01345837995065723 
0.09129291122844817 
0.2296865677762923 
0.01609300033178524 
-0.005875094465418186 
0.1097647665659923 
0.002737908369653347 
