solver_type L2R_L2LOSS_SVC
nr_class 2
label 1 0
nr_feature 1000
bias -1
w
-0.09396179894920022 
-0.01956340639585188 
-0.03618684115863778 
0.05891592815761308 
-0.02559166655316586 
0.1040741063086723 
0.02134244443225677 
-0.03986258576484567 
0.03885691568646632 
-0.09374634161165367 
-0.006553033452153545 
0.04211850435773794 
0.06919284086667749 
0.05725939860604565 
-0.04762517507808593 
-0.01872677663844251 
-0.04775499070151511 
0.01489146707526463 
0.01328118346742297 
0.08044307120186008 
-0.1243157739685989 
0.01468206015166413 
-0.1388724889031132 
-0.07687401365241769 
0.008455021857361276 
-0.04459671345129809 
0.08415730884691189 
0.1195130311039693 
0.1086175640629132 
0.04641422511273716 
-0.01896034141167838 
-0.03804916809812614 
0.01511562430783442 
0.06590370213524933 
-0.004730735021502923 
0.123311045734587 
0.07671812537337071 
-0.1072737956090862 
-0.09357595496024879 
0.005933467497432024 
-0.1437948886517282 
0.051688242750026 
0.105469862958274 
-0.06019526078133465 
0.0007995274989808822 
-0.09292510719704833 
0.04838983327421506 
-0.003650342357431377 
-0.1108621552295773 
-0.0003196870065262317 
-0.2872340601246761 
-0.2700661375078435 
0.1636098021776616 
0.1181264341711577 
-0.151973775002763 
0.3669434837147796 
0.02990418209488522 
0.06426780624444559 
0.2763276084708972 
-0.03326070471659402 
-0.06897495139352276 
-0.08619408552201327 
0.3382940280789582 
0.1181036528677513 
-0.08948705661238927 
-0.02860537565194586 
-0.109265513123299 
-0.05067266674250762 
0.1025566244793976 
0.2334025218011308 
-0.1088740903831432 
0.07442238133612648 
-0.3459152953592977 
-0.09183089073332618 
0.01932140480554436 
-0.004302297030761403 
0.2444313827468736 
0.1105159065296252 
0.3540858251608169 
0.2030750030009755 
-0.01546626153057023 
-0.1335567627017135 
-0.2516039200616636 
0.09922778942308268 
-0.04316371233776075 
0.1259225675580372 
0.1397319280293292 
-0.2732060568015838 
-0.04003286226067235 
0.02603618052121335 
-0.2626160146045643 
0.1381333456824135 
0.1602132265559394 
0.09456419130840975 
-0.1263042717908081 
-0.2789530428493473 
0.03089022817943938 
0.0006558332419755474 
-0.03453258236650489 
0.1951693096330257 
-0.1526797294363867 
-0.1888725879604308 
0.1972547980712534 
0.1773860814810368 
-0.1416613728191634 
0.3595960704398176 
0.07077576403196062 
-0.0315464657672586 
0.0798570753223227 
0.04380761163357113 
0.01768741673219282 
-0.1301777626589614 
0.2530899406701678 
0.02674148180175885 
-0.09694159408882021 
-0.0486655369165505 
-0.01672338496442596 
-0.02945615520578507 
0.1074722285486042 
0.1869765948191067 
0.01210083553264387 
0.07582769549123727 
-0.2009387915404791 
-0.1134388367767074 
0.09453805552977797 
0.02477772886784142 
0.1966623347612473 
-0.07164188559019591 
0.2377062767160876 
0.1748492465786687 
0.09152956705406801 
-0.1740754751585619 
-0.2359359373594687 
0.0488754033621011 
-0.04553333542062382 
0.003491754563624022 
-0.1457437602052549 
-0.2631928461441413 
-0.07159537664425686 
-0.00215501777804413 
-0.1458778026930655 
0.05804592459051709 
0.1420153946973851 
0.1064733612432001 
-0.2625706368769768 
-0.2038917157093523 
-0.05725219732929646 
-0.07126055408797598 
0.1923981673442531 
-0.04644820038791078 
-0.09924166064921024 
-0.03820941171112158 
0.08766523737313395 
0.07360809374080543 
-0.0726896805801186 
0.1795090072908579 
0.09447390110297887 
0.09314070800606246 
0.291405984573234 
0.2134281556766718 
-0.1368529388395729 
-0.09582565467819519 
0.1439175579870342 
0.2743095313122788 
0.008992576574478214 
-0.03101459608107125 
-0.07044098105692098 
-0.009271941241137281 
0.04649239823419959 
0.04300773636500298 
0.1286172148309283 
0.002228259481502824 
-0.1824627424428208 
0.1124987253424216 
0.01308603764920398 
0.02762346431218325 
0.04475956013639594 
-0.04624708059914685 
0.09978402884469303 
0.0595794240746599 
0.09272599357213604 
-0.1168027096262055 
-0.2636133830018317 
-0.03898077952141092 
-0.05795185290539569 
-0.0431287195046092 
-0.06316746029216048 
-0.07774803420825716 
0.1777128686368585 
-0.1430583645651114 
0.09227798346346032 
0.0210165859813924 
0.006829122069334876 
0.204876454388017 
-0.1548072943575837 
-0.1212921838238572 
-0.06977956217046746 
0.01813211013014479 
0.2724794820874658 
0.07633136138116089 
0.1295273327003117 
-0.2197295711964069 
0.1281662120319612 
-0.1266547866066554 
-0.03545220757565248 
0.04121632162905048 
-0.01831905188948863 
0.1785611367139928 
0.1513429434685961 
0.2126890333933787 
-0.06034801691111855 
-0.1302865354474253 
0.08731043754854174 
0.03732254542714416 
0.05471262543031403 
-0.01864040274121934 
-0.1065264811002264 
-0.08380864443148522 
0.05339122897516968 
-0.04796972630650684 
0.1662013895917495 
0.01747205558828635 
-0.03959779694914204 
0.05073133471881325 
0.05140437607189421 
0.09931115840906922 
0.0005910752247457081 
-0.2505788502981562 
0.005773466849035692 
0.01594078697261805 
0.05831791216213642 
0.04463954631797686 
-0.2441266184996063 
-0.1463821393442246 
-0.01939061434324518 
-0.1886374805548437 
-0.1958987874969597 
0.108128177283164 
0.09700618063769099 
0.04410210076355044 
0.266750386721995 
-0.02123055217677234 
-0.1351968583237129 
0.2432509085916746 
-0.1005530898014385 
-0.05999863735185351 
-0.09846159966630634 
-0.07189551779860426 
0.3271875446062534 
0.03459841696592508 
0.3704710470508348 
0.06412441778131779 
-0.0412274088476282 
-0.1820166828383392 
0.1560303965791935 
-0.2563064493931224 
-0.008257678976018838 
0.0475026130055372 
-0.01131871866997389 
0.2944516542511941 
-0.03388759420813384 
-0.03742881165656432 
-0.276630667952054 
-0.06763254739203971 
0.07885081729167132 
-0.05968909940002234 
0.01585041679880302 
0.04596359897362597 
-0.03278394475306989 
-0.2273963080482808 
0.3066109996234601 
-0.03458090420217386 
0.2639382765811719 
0.1811396701806094 
-0.02602734725764809 
0.01415639301262331 
-0.2233996713308031 
-0.252768308534797 
-0.2688517038347679 
-0.1884761233215998 
0.0228381718117137 
0.1375806858020049 
0.03131547442701163 
-0.1872660620223241 
0.0193642128710621 
-0.2419288095790803 
-0.1730452443282066 
0.3044738136623745 
0.1217244570042212 
-0.06807012812849007 
0.407387318555497 
-0.1020795312492525 
-0.3074355104793676 
0.1496816336431678 
0.005066607314370194 
0.2628654509246305 
-0.1071685942828322 
-0.07228575949790289 
0.2582360259986326 
-0.0986181173493756 
0.2050271760796351 
0.08895037258033417 
-0.0831992020600838 
-0.2868029408202183 
0.092781791834535 
-0.2268105059443548 
-0.101664156003758 
0.1699188843811302 
0.308623673301879 
0.2597923727140197 
-0.1114999754116721 
0.02667105054897827 
-0.1861279570941756 
0.1222421340494252 
0.1650554182378767 
0.02134567185811022 
-0.1099134371325237 
0.0114133503250391 
-0.03377046235601387 
-0.1974285066496496 
0.1737669646550161 
-0.06062743698317647 
-0.007738669424757358 
0.1904109285426045 
-0.1108991404092638 
-0.006930691944061301 
-0.1774235722726897 
-0.1112879417713515 
-0.138902643801594 
-0.135579489020148 
-0.05636635004482154 
0.1388907251450307 
-0.0025068540668124 
-0.1474790501978239 
0.004236378872868159 
-0.2013714145668554 
0.1850064851962147 
0.3206805268820916 
0.2486321859446108 
-0.07329791255578051 
0.2655172157598775 
-0.01306039391464 
-0.3298598247250616 
0.1157236021320393 
0.1857631202518057 
0.0327095543985437 
-0.01604361755405245 
-0.02443410334917358 
-0.04324720394594633 
0.1709279089385876 
0.1710807333748952 
-0.1845696006662144 
0.1062780563699555 
-0.1213549445501075 
0.06017321719895977 
-0.02748332417594596 
-0.1427737209015495 
-0.08219617571782083 
-0.1919111781740875 
-0.02190989753866243 
0.119048879158428 
-0.06981774957725434 
-0.09023647482877731 
-0.386007579906345 
-0.04255712035040387 
-0.0671858964890714 
0.0157077319366121 
0.02711879857107377 
0.0510276444844705 
0.01399632580804915 
0.1443199227884091 
0.06949587914537925 
0.1034734444204544 
-0.00370967889163959 
0.02100340082238804 
-0.03608722841613272 
0.01132537010338674 
-0.09462352677117136 
-0.03813447919286491 
-0.02694388123019611 
-0.064682939168096 
0.1123997058611203 
0.08385401968311569 
-0.01985922961524087 
0.03475992185283419 
-0.121727624741633 
-0.02696188943425278 
0.01896011787626686 
-0.1079201896939674 
0.2485666902169092 
-0.02848424106601077 
-0.01394764836302974 
-0.1871984725693248 
-0.01006113092352008 
-0.02062748292351254 
0.1098298175510366 
-0.03148272006063152 
-0.2298213074581408 
-0.08864037513202414 
-0.08133361141259079 
-0.1128669390723846 
0.005718368432443846 
0.1296892486533751 
0.01713853817821342 
-0.09181640744126422 
0.1968768732896874 
-0.1561430689880609 
-0.09025460752658328 
-0.1433013538587918 
-0.2612717255706535 
0.1028496496444843 
-0.04255422361516765 
0.07469002061351548 
-0.3410854042087139 
-0.01571291769752595 
0.02664162734490477 
-0.02550821326982304 
-0.07815235362762425 
0.04300273942115373 
0.1508049860866491 
-0.1659722075201899 
0.05918901116607667 
-0.2034359648547286 
-0.1795106335558259 
0.01201155989650884 
-0.0007697616304647137 
0.1562523194059816 
0.09860115296043069 
0.1189376534483353 
0.1118986693764793 
-0.09822193981077183 
-0.0006201017490835709 
0.0874657400068221 
0.08763728137356921 
-0.01198022337784326 
0.04573880145163381 
0.2341181629597774 
-0.2594601608022544 
-0.08086466085070278 
0.2617741748575932 
-0.4017381997546879 
-0.01628698191370263 
-0.02903327449939047 
-0.1847883392986925 
0.05410352668137264 
-0.0948219861859291 
0.03326717366408238 
-0.1174124221065957 
-0.4543998330444515 
0.1034812837312642 
0.07777299064053445 
0.4273324607710081 
-0.1913020165553885 
0.6201219596913853 
0.03459141957393083 
-0.3485701494481802 
-0.01665253177170171 
-0.02386929800651156 
-0.2330920320063002 
-0.3085033045635045 
0.02564137155118632 
0.2401455213258903 
0.2862708761392141 
0.2356308427087585 
0.1481218587611298 
0.1696497867322878 
0.01547086325188999 
-0.1722003407956082 
-0.1059947651523577 
-0.04607587582888342 
-0.1750009230286133 
-0.07671278749421591 
0.002370041494749751 
0.1124663085952168 
0.2257739485655973 
0.1661350064998809 
-0.05773821388167762 
0.3115526834999196 
-0.3772446158924942 
-0.03127974642910573 
0.1066533573703631 
0.124383739217939 
0.1009871774132382 
-0.05027579658867957 
0.09566202928340653 
0.09799176043570715 
0.01728565488325955 
-0.04435843331068789 
0.1507308842678831 
-0.07471694699825812 
-0.1790106385609751 
-0.02165672590382906 
0.0609799763592178 
-0.3458779341326662 
0.3766536611798643 
0.1727158361939413 
0.2226459676037379 
0.06707074903968882 
-0.05935779854177097 
0.06678507365214012 
-0.02889078913184105 
0.09370260785471124 
-0.1136018306707833 
0.0519073097359905 
0.0549645572681758 
-0.1800729043095161 
0.04148587085855037 
-0.1031234628285604 
-0.2269703507015275 
-0.2262075111912856 
0.01943970802868441 
0.08918668568850631 
-0.08366962697343021 
-0.0631971262953674 
-0.0341319325216552 
0.01444947687607273 
0.08298486666215542 
0.01295712172046738 
-0.08500567769718889 
-0.03231103718812499 
-0.2315388374711196 
-0.03441216544270951 
0.1608926295435 
-0.107447445770747 
0.00296782619734582 
-0.02207102345921241 
-0.03793117785715299 
0.1696586506292184 
-0.09950201680897414 
-0.06025636282226737 
-0.03944890075894303 
0.03281706201827354 
0.1970182963128287 
0.08038225963318059 
0.01945954745381911 
0.2379941419944027 
0.01637636943349948 
-0.05457738451262765 
-0.07752149251118126 
-0.02457714660848885 
-0.0324966403740633 
0.002661222151168883 
0.05842558364874036 
-0.1843834404839708 
0.1335168373336894 
0.1854763132488031 
0.09478370037674873 
0.01336442485885955 
-0.1627434184794995 
-0.01355682817656131 
-0.04724172452976803 
0.2054768394150036 
-0.1657571876156149 
-0.009369478812312685 
0.03461095351497426 
-0.1886771928768218 
0.06928489085402763 
-0.05256099016359487 
-0.1032298406522126 
-0.1257637431827305 
0.05803756816375334 
0.150390344206388 
-0.1428729600642522 
0.07688635790486995 
0.02010283949520635 
0.09530092426370705 
0.1149387851777971 
-0.02734592089235459 
-0.09671673738883507 
-0.06811144530429507 
-0.1898940043389289 
-0.06677467767611034 
0.1884565578655468 
-0.07322041254570991 
-0.04308956412007466 
0.02500413091267734 
-0.0920749690555574 
0.1266746257411928 
-0.1142539552021368 
-0.04478417452375302 
-0.02990645048501742 
0.002017168059899185 
0.218129301579863 
0.06553920359577839 
0.03653129359465745 
0.1610957629804796 
0.0130662140443497 
0.06496643895709556 
-0.1070000202641459 
-0.07913241443046135 
-0.1144392928983045 
-0.02179632472919446 
0.1278543907102777 
-0.1972726437172945 
0.1726098665560956 
0.06407978668392858 
0.09196838900906434 
0.1325550026976936 
-0.1805610273314644 
-0.04401674978453381 
0.03016092039275543 
0.1915616153954995 
-0.1990415018864588 
-0.01381485176002165 
0.04752371011454565 
-0.1828060742798021 
0.06879935661950375 
-0.04597098911923012 
-0.04874555751200265 
0.0002167867330871796 
-0.008569788374387136 
0.1228110211009083 
-0.1198028585599498 
0.2323536620681991 
0.02060937905275721 
-0.01887957811252941 
0.01962135624093428 
0.07897836522252875 
-0.05007999602214017 
-0.07041006978038927 
-0.05335295883028567 
-0.04698270880635062 
0.06180143371448293 
0.008362565520914415 
-0.02141201398232616 
-0.05430245021448502 
-0.08253867231565866 
0.008480812101231543 
-0.06252108580981278 
-0.07499080229873246 
0.06276620125692696 
0.01550551288795132 
0.13942169732825 
0.007092597287205236 
0.02517482225412667 
0.01928527791656278 
-0.07617315983482098 
0.07958037926815102 
0.06170765929149967 
-0.1539508088852972 
0.07455791188628769 
0.01792336219968043 
0.09505969752778118 
-0.07631263374864236 
0.05525799238685477 
0.0467490250903326 
0.04270802817459629 
0.1415346018439549 
0.07246646367259178 
-0.153231021627185 
-0.09011560760612376 
-0.01695907421949257 
-0.08318880777075262 
-0.1981634540232629 
0.01712554363530887 
-0.0916876964296436 
0.1430175834951422 
-0.1169067170120079 
-0.09445867220193696 
0.08371800500938525 
0.01704581010066588 
-0.01948726405978554 
-0.3415128176102696 
0.04811099788099592 
-0.07629976357017716 
-0.02965640981625249 
0.1373392003400383 
0.1369812355076645 
-0.05676040224516488 
-0.01568860759595299 
0.09116724957510823 
-0.04852772230580631 
0.2155540826263781 
0.08895712319847193 
-0.1807776209170087 
-0.09574615349788788 
-0.1204214891207823 
0.05723425767957367 
0.05185368566277553 
-0.09463654249122069 
-0.03374262161260583 
-0.133302738519341 
0.1194340823318402 
0.08064597385476037 
-0.03187353587703633 
0.09790761650822975 
-0.1476645513717804 
0.047848771047298 
-0.01877741852714321 
-0.1367627519609605 
-0.1654554493445271 
0.001314098781115138 
0.1726213803392073 
0.0737253729959256 
-0.1352409321648547 
0.01199229071029142 
-0.0461477551066481 
0.1023121521677957 
0.08546359114047421 
-0.2353786540678557 
-0.07346873779887719 
-0.1302519442517036 
-0.01953555638722384 
-0.11479365618537 
0.0108634662077165 
-0.01232143319995277 
0.03028339962698706 
-0.04750162830761902 
0.001322691786117027 
0.08760109692925286 
0.006541299136473684 
-0.02522252272775003 
-0.09051468391955815 
0.04636751194665875 
-0.05232777488759932 
-0.01373190233226601 
0.06011197798865991 
0.1107052985834282 
0.003636632676834152 
0.009186440249582092 
0.1567469470238856 
-0.01592289725626377 
0.0926615227601517 
0.1549392743801853 
-0.1071466130185253 
-0.07436457436391629 
-0.0503224671085402 
0.006203646577075261 
0.05862655637254477 
-0.031896044647526 
0.004092433035578351 
-0.09290884015071046 
-0.04196810464645283 
0.01064770157906106 
-0.01569436199480811 
-0.0660649901060201 
-0.07382428766452427 
0.06566356910523376 
0.06493844755083522 
-0.06645666413696819 
-0.03139250542389053 
0.01132195787459123 
0.09635535983333914 
0.1172339347015329 
-0.1271907773088754 
-0.1000275457396078 
-0.04429067681267747 
0.08180738520307242 
0.1505911258718617 
-0.1142184846364775 
-0.01970359888075989 
-0.1520753530738747 
-0.004761519702715143 
-0.1528608912450151 
-0.0203721857836051 
0.0006613438246404393 
-0.0432272151552687 
0.01443378206745841 
0.02145562338140556 
0.01172473327071698 
0.05046666574852694 
0.02038391497719799 
-0.02334645749530733 
0.009962753627803503 
-0.01996441165690505 
-0.006825433150702022 
-0.005874753814163659 
0.04245206513703412 
0.02905389300994207 
0.03362900623188095 
0.02048434231879316 
0.01223272780806311 
0.007729713352647907 
0.01846981702381626 
-0.05580424514709841 
-0.04386723717936376 
0.02107649779889707 
0.01197092848439531 
0.07354813074668878 
0.01613732750861872 
-0.01154714420774397 
-0.01172222372918738 
-0.0002789206917694666 
-0.0132314727146393 
0.01042842610627344 
-0.02201246045394455 
0.0003617257742366837 
0.05179303718751073 
-0.01214424303477974 
0.03705344022291059 
-0.06277204497394383 
0.03104430392889988 
0.07451418358959742 
0.04362558096594363 
-0.04063877256255812 
-0.1404191661492519 
-0.008561935537381273 
0.0145871572035056 
0.001226658792415581 
-0.04082010178354638 
0.03005362217576813 
-0.01874710028765826 
-0.01538575442675388 
-0.04816166320361458 
0.009463999831455468 
-0.04489146371779624 
-0.008943072178729652 
0.01134310706332005 
0.003512310663347946 
0.04084861642806014 
0.01716736562009644 
-0.0001740169498279779 
-0.04790301568444946 
0.01144903364315301 
0.005000712463052943 
0.009319543867241882 
0.008720900663844686 
0.01746740426933976 
-0.001931191580170381 
-0.02630851845032398 
0.05337525658330334 
-0.007848460254111655 
0.04584416218083596 
0.03280481370920204 
-0.01622230920296201 
-0.007018025634677058 
-0.02997297543335331 
-0.02751484460297192 
-0.02002186668928792 
-0.01876404779294861 
0.007364640155221972 
-0.00529145921430988 
0.005330633221903327 
-0.03456001246214982 
0.00626488753222624 
-0.05113990299457356 
-0.02870994814312039 
0.04467086638762864 
-0.01457711594054361 
-0.0101214555567621 
0.03914666120390823 
0.02697071452157147 
-0.007528815915962211 
0.02396165334106951 
-0.006177621751243286 
-0.01405191794721394 
-0.004355299235532292 
-0.01483127492350454 
0.03917410489398247 
-0.04417812775737795 
0.02545422380946841 
-0.008106491664783534 
-0.02462880942341507 
-0.01166763336665738 
0.01498497428000033 
-0.02675023009855742 
-0.006002730191441215 
0.01811130394789269 
0.004156895920022517 
0.02091066563713166 
-0.01390750105695366 
0.009907727468721175 
-0.00682630102619964 
0.03261355843775916 
-6.741583556936232e-05 
-0.02192317151659887 
-0.01755612850190291 
0.02656379090722231 
0.002798471984836163 
-0.01136190526210969 
0.03377301091237415 
-0.001428631091129543 
0.003479950290997178 
0.04255930854639559 
-0.01453484386641737 
-0.02156393199942188 
-0.01309910282887519 
-0.001490930062344938 
-0.008787039463776666 
-0.01976635983069422 
0.01038573671139045 
0.01300236252080588 
-0.006970514102472221 
-0.03206010719565398 
0.003856353800836689 
-0.03595193885895748 
0.002850362325948781 
0.03196869672994244 
0.02091428345028438 
-0.02105958977756833 
0.04802136425011652 
0.00895374121847182 
0.003594028776801888 
0.02770633531584685 
-0.01398100762552647 
0.0107864146665929 
-0.008694579254759562 
0.005766616933149521 
0.0467202497120053 
-0.003898009698975401 
-0.01967303715543987 
-0.01252458564295557 
0.01848577665649392 
-0.04061912394861785 
-0.02204996270948479 
0.02093411204683687 
-0.01152300818457997 
0.01971904114565134 
0.02622569146877832 
-0.01509015581838339 
0.02210150112981833 
0.01346197999428844 
0.005238108734512449 
-0.01541149650929659 
-0.002300712123471496 
0.001381105723403682 
0.007285143123611483 
-0.02441074147335185 
0.005299552860248993 
0.01443369590203435 
-0.05399471167666319 
0.01071243491436817 
-0.006204088514586143 
-0.06124085273083232 
-0.007184963030508396 
0.005635462773743788 
0.02233746025489473 
0.001866660787826912 
0.03088073734199948 
0.02495586084393053 
-0.02284906290019176 
0.01491467050747341 
0.02595551875034808 
0.01547705776003659 
0.004804161769350492 
0.04024959549363883 
0.03249542542660405 
-0.01601025029301108 
-0.06675484078613536 
0.03831940244570996 
-0.03651534941493846 
0.0006435750081478864 
0.01801879168471289 
-0.03246075170360242 
0.01730807212523315 
-0.01330149077133466 
0.005170052704530817 
0.01399480774469904 
-0.07940223370801912 
0.03592102285293 
0.09381436508587675 
-0.03210134060596426 
-0.05228491711901941 
-0.02120647482334761 
0.04816627803885577 
-0.09749614169696671 
-0.04046051306046175 
0.02397794355268519 
-0.08746316081103324 
-0.04824685255679567 
-0.02314171226847279 
0.02295411724108009 
0.007668189905826929 
-0.0288814668420224 
0.009300121872095293 
-0.04622902173962639 
-0.05628123457818842 
0.0194498903505619 
-0.00923723926956798 
-0.04003676475621606 
-0.001258964924220837 
0.00135015603300051 
0.01231686696408467 
0.02470013311075098 
0.01091042518232673 
-0.02321841463727978 
-0.0223511791069098 
-0.02058743007673191 
-0.04706497366873078 
-0.05541265186487084 
-0.003884948727810562 
0.1005975595887503 
0.02311635955899437 
-0.04696857578624918 
0.01679868419956702 
-0.04624869708581542 
-0.01408750862558523 
0.06156485905265993 
0.01116984958332468 
0.04669052617356004 
0.1277227440107141 
-0.01514721752493366 
-0.03981093374489064 
-4.657831306318239e-05 
0.03249660361720612 
0.09284558359429468 
0.004102834543185438 
-0.004357805437506219 
0.04941337867134658 
0.0002789169224551068 
