solver_type L2R_L2LOSS_SVC
nr_class 2
label 1 0
nr_feature 1000
bias -1
w
-0.09192837134081344 
-0.02671055052375111 
-0.03686989129171807 
0.06385643904462146 
-0.02412435917250604 
0.09866858383356591 
0.01830197665763472 
-0.04175587908846255 
0.02870558292426457 
-0.1004415930835973 
-0.00761432975785916 
0.04234045661578041 
0.07491017017512205 
0.05278700139167018 
-0.04853700240043389 
-0.02208201264641987 
-0.04928509741635327 
0.01804605785045055 
0.01297435688445806 
0.08145041244658832 
-0.1243851200631233 
0.01501953684511568 
-0.1389850983118585 
-0.07320743956812642 
0.008595501499074792 
-0.04760115445505715 
0.08416177888465702 
0.1215094741117937 
0.1090714300401882 
0.04352958398099097 
-0.01952966942387861 
-0.03421096539226767 
0.01325687272164714 
0.06658019579836576 
-0.004620076856427065 
0.1217336663729217 
0.07593490871164396 
-0.1052435783849826 
-0.08767766348745998 
0.00721120249877562 
-0.1438724748628878 
0.05017806059393945 
0.1068089358771334 
-0.059191105495725 
-0.0003235834435158184 
-0.08889283196942471 
0.04883694319730702 
-0.002774142631143455 
-0.1050615576064199 
0.0008895254173051257 
-0.2850353938837181 
-0.2691704292977953 
0.1653980092678213 
0.1159012009750942 
-0.1501122381054039 
0.3722333890963799 
0.03466901270453718 
0.06600662186613933 
0.2867648188556601 
-0.02256482685614684 
-0.07401070476188699 
-0.08832503091256783 
0.3353736871851433 
0.1222006579261418 
-0.09075388049221789 
-0.03405645319876262 
-0.1103891821022098 
-0.04782495544497407 
0.1044414057709174 
0.2341385419367136 
-0.1018510373474823 
0.07566271016430037 
-0.347190799960987 
-0.086519899535068 
0.0147241734281023 
-0.006592752507612768 
0.2441108353354163 
0.1105425388264897 
0.3571149890046775 
0.2023649867334728 
-0.01540729182586748 
-0.1349567850488031 
-0.2548689122377404 
0.09527648863645677 
-0.04409923893009651 
0.1240452251040958 
0.1437646593552233 
-0.2765770943417367 
-0.03751023966791669 
0.02028218239539951 
-0.2611932323562884 
0.1374160933729058 
0.157093350880985 
0.1016367992034018 
-0.1314237123197959 
-0.2748427932695262 
0.02744060752272369 
0.003614150855666808 
-0.03017109836398837 
0.20072320930353 
-0.1448694374850492 
-0.1918818971262267 
0.1922828675902161 
0.1874476521105729 
-0.1341422484877357 
0.3475604993333927 
0.07065666867867471 
-0.03616287770954777 
0.06781857501136618 
0.03844081829556958 
0.0170872671779831 
-0.1270605057104695 
0.2528465845048504 
0.01985605247536254 
-0.09811900779211279 
-0.04772243821871429 
-0.01384223551563965 
-0.02775528317030797 
0.102963911912782 
0.181847046310698 
0.01445341469377347 
0.07323407645646171 
-0.1896212195596044 
-0.1055234526989659 
0.09755042736500143 
0.02459013464961332 
0.1900012413928245 
-0.06474721112662411 
0.2254432844650832 
0.1672340313457821 
0.08876886156683063 
-0.1694811409969138 
-0.2343121671091796 
0.04936861569987809 
-0.04419332290286476 
0.008959799117677743 
-0.1504034321169893 
-0.253468221349787 
-0.07170931623744453 
-0.00320519549862169 
-0.1405251918377236 
0.05374724649229323 
0.1398590294590731 
0.104845364485059 
-0.2581304399703016 
-0.1938325125229405 
-0.05520768406745053 
-0.07277703518475001 
0.197519088286186 
-0.05024445261037242 
-0.1030106367252815 
-0.03599627549362888 
0.09164415833903021 
0.06790417788355571 
-0.07402064338213933 
0.1820156268467758 
0.1002622342097423 
0.09031240966874135 
0.2957073924222063 
0.2212398753815066 
-0.1329719640415559 
-0.09757371802798578 
0.1347423957112156 
0.2738685501836417 
0.006501484912430071 
-0.0308721300311883 
-0.06134232475405008 
-0.008220210656797164 
0.04733499923504954 
0.04437998334421032 
0.130042522951731 
0.003118709137166741 
-0.1724691393492283 
0.10810881329627 
0.008685768409594907 
0.02780760270953446 
0.04406129362354654 
-0.04899357242667413 
0.1029651648831873 
0.06211494741326597 
0.09304969640967878 
-0.1231951007424218 
-0.2594796651647656 
-0.0361185753731756 
-0.0578693548317337 
-0.04076801094949023 
-0.06451721737137495 
-0.08135760178796272 
0.1731242568714714 
-0.1490252005944606 
0.08524672668102573 
0.02324716303839939 
0.008676005514259205 
0.2052592895369373 
-0.1586852307767902 
-0.1196472916922717 
-0.07100572157398395 
0.01867532969700338 
0.270042481394169 
0.07529419188887124 
0.12585885826688 
-0.2141822616476411 
0.1326786785555673 
-0.1299033057103375 
-0.03929119859630508 
0.04254788348489599 
-0.0172710389092922 
0.1798558830824085 
0.1535522567381498 
0.2154567816156228 
-0.05736502366046779 
-0.1328139996397982 
0.08233804444124082 
0.03592291445677923 
0.0564193965645439 
-0.01449205173092518 
-0.1015873297239599 
-0.0880503907653932 
0.05262446180964654 
-0.04846632992773077 
0.165933814994723 
0.01710650999097815 
-0.0362067632496208 
0.04666350803055345 
0.05121057340945114 
0.103335038003058 
-0.0002202350586755992 
-0.2532977698825688 
0.005272611578310219 
0.01835200431370219 
0.05780697176574787 
0.04194563023717036 
-0.2415198598201281 
-0.144608107333841 
-0.0200292027747661 
-0.1863265479990495 
-0.1973517138931334 
0.1049948082067409 
0.09301745970205402 
0.04618102843149901 
0.2630190542389991 
-0.02108004106942114 
-0.1357873702181303 
0.2409157368666162 
-0.0996760458510751 
-0.06015371897669283 
-0.09923018237978964 
-0.07189927653680303 
0.3213866903678897 
0.03422095759633964 
0.3681434037408772 
0.06325569653806612 
-0.04228453307423423 
-0.1913840263553703 
0.1548304098051135 
-0.2511934862129015 
-0.008032803012032588 
0.04633700384717247 
-0.006559812926732966 
0.294595440060744 
-0.03219703962863172 
-0.03516042728460172 
-0.2793746239512082 
-0.06444328517459941 
0.07780379627696277 
-0.06287028572693781 
0.01327095036253853 
0.04842004566542413 
-0.02998985713108929 
-0.2237215690849603 
0.301866779374655 
-0.03252092580771622 
0.2585260932494883 
0.1750099964742935 
-0.02854632549675418 
0.01073440526191386 
-0.2189896325606137 
-0.2526225255153813 
-0.2617459107546305 
-0.1856576291740434 
0.0234835196622516 
0.1370991136319606 
0.0355638929079578 
-0.1852296840186987 
0.01982634597435412 
-0.2410858899177536 
-0.1692451981916331 
0.3013019073070596 
0.1187432603549023 
-0.06639091868967334 
0.4019031511108491 
-0.1001193463088325 
-0.3057358511069622 
0.1481203845636415 
0.004159333076294704 
0.2580087523031662 
-0.106740125513296 
-0.07637154122604135 
0.2516400104348298 
-0.0983296047508299 
0.1907771853789955 
0.09268270696385857 
-0.07416926232929349 
-0.2884157922989988 
0.08151686279433445 
-0.2105127635274742 
-0.09903455266003734 
0.173435715763899 
0.3212349380388896 
0.2610894515981435 
-0.1091823191130155 
0.02288472884741315 
-0.1814507794696102 
0.1291041747513927 
0.1665850900453094 
0.02690819226386081 
-0.1095203216873698 
0.00412403981844082 
-0.03079239435703886 
-0.190069513414144 
0.1660725123213368 
-0.05938655236597925 
-0.01908061343136207 
0.1798878090712702 
-0.1098491965103244 
-0.001360724594358539 
-0.16889342952586 
-0.1104012150277203 
-0.1292853488249416 
-0.1245532282186523 
-0.05342278427766858 
0.1286108628189125 
-0.006932026449329059 
-0.1440428018526874 
0.001582117445441769 
-0.1963144143899799 
0.1876830680879291 
0.3066265475240679 
0.2444868926609076 
-0.07188077012441191 
0.2515395949958438 
-0.009523197966821557 
-0.3246991396446096 
0.1144131960934336 
0.1828421231350851 
0.01843246788177499 
-0.01638195892295135 
-0.03067895045216311 
-0.05251943531969876 
0.1767071736539993 
0.1700286405546776 
-0.1824032975344508 
0.1104427644063814 
-0.1236455777368246 
0.05713313532429082 
-0.01961623038332879 
-0.1438409390519375 
-0.0792628185740594 
-0.181947279776445 
-0.01812321985918372 
0.1193435329633869 
-0.0722881204193465 
-0.09104564770996611 
-0.3871920322215605 
-0.04187442120796293 
-0.06584439764638896 
0.01370886547828815 
0.02419365438358411 
0.05238776141025327 
0.01479025839663591 
0.1423337925549171 
0.07071886070607572 
0.09659101426780566 
-0.01088649026759066 
0.02276695572007875 
-0.03482604343716397 
0.01442942597309519 
-0.09736711188179606 
-0.03421103869599577 
-0.02346836537601336 
-0.06669646888974975 
0.1110157838163267 
0.08356988478341104 
-0.0190042188846746 
0.03367844124446279 
-0.1189068379296642 
-0.02189993943426686 
0.0149871718050904 
-0.1157347672773412 
0.2516848271550701 
-0.027948457347651 
-0.01035364559007973 
-0.1913127974557548 
-0.01085699383957911 
-0.01983321192006136 
0.1058710729287368 
-0.03164634499997421 
-0.2345119880597356 
-0.09773113903048057 
-0.07933357729300429 
-0.1129450942049677 
-0.00196403865794334 
0.1280237808705733 
0.01282840994660717 
-0.0898908828593984 
0.1937378736595096 
-0.15666134635364 
-0.09102821681632509 
-0.1408420693433876 
-0.2612785515900364 
0.1025463523861852 
-0.03912133553556311 
0.075220284978664 
-0.3384800453866964 
-0.01681076747473915 
0.02530687082486203 
-0.02482064394560989 
-0.07435556823366864 
0.0430975350335704 
0.1511699083666531 
-0.167755549459233 
0.05886924028143687 
-0.2003926529509903 
-0.1767081683651298 
0.009806199620063008 
-0.003923633744417756 
0.1560282975541085 
0.1045811014837675 
0.1186048247592444 
0.1106077507582509 
-0.09875029441488455 
-0.0002997000879613673 
0.08704470178770846 
0.08849868428275297 
-0.01159613299777151 
0.0511881033310073 
0.2361757707433011 
-0.254423348110566 
-0.07663113387896964 
0.2589138083266589 
-0.4006493043119681 
-0.0170457485529927 
-0.02786508508892575 
-0.1826501244779978 
0.05438216978311345 
-0.0972665994366838 
0.03379492945693702 
-0.1192749105072414 
-0.45351509771654 
0.1065954749648118 
0.08554946440480234 
0.4305786098223386 
-0.1969456360604306 
0.6243913618015196 
0.0386506205897656 
-0.3555191528047655 
-0.01409328461792012 
-0.01881492471429459 
-0.2325655338712498 
-0.3057960610125147 
0.01798636884806463 
0.2416868176565499 
0.290167581884143 
0.2451797323555614 
0.1510681717116501 
0.1680614672545306 
0.01113840727399803 
-0.169449453559681 
-0.1080791842625402 
-0.05319538753170425 
-0.1742599307421681 
-0.07963687297760889 
0.004089207823191911 
0.1186526410370068 
0.2272587585848073 
0.1659659491535313 
-0.06179580975798314 
0.310309749014569 
-0.3857820855470219 
-0.03661648708183922 
0.1128347781622088 
0.1257125516338873 
0.09430493265841365 
-0.06106467562031389 
0.09475818686694538 
0.09279413465452002 
0.01409032790165322 
-0.04066272197949639 
0.1592200907866513 
-0.08484305201675188 
-0.1536803348486875 
-0.02271526268188382 
0.05718698097414947 
-0.3398113271631433 
0.376260091907954 
0.1791487023222471 
0.2211839479522244 
0.06801164365820835 
-0.04203475079100425 
0.07099339954149494 
-0.01405448790517387 
0.08917398264477575 
-0.1169562328386501 
0.05179225678674692 
0.06335628435362625 
-0.1888649084483794 
0.04013884722612114 
-0.1015280412314592 
-0.2316269885375946 
-0.2220672151513662 
0.01653760829511119 
0.08888160092205345 
-0.08750057309289651 
-0.07064217356177753 
-0.03534219795634843 
0.008909644949786528 
0.08063229941316698 
0.01640444972256545 
-0.08560071556872792 
-0.03801005333426376 
-0.2229100559761298 
-0.03374017700176567 
0.1686319522526424 
-0.1010548282183805 
0.002803253267043463 
-0.02452705679805208 
-0.04314845853444656 
0.1650483521349836 
-0.1053610225122647 
-0.06747174738659086 
-0.0422840748221152 
0.04171029336555847 
0.1979847286395618 
0.07371925129496981 
0.02157054522848002 
0.2320208975968703 
0.0152414921424595 
-0.04599583512371799 
-0.07863756799609971 
-0.02426895818052557 
-0.01804887879193338 
0.002093012578364965 
0.05077208583161355 
-0.1796746289266586 
0.1342689042309088 
0.1986121693615074 
0.09364441555442997 
0.01698742872276071 
-0.1544676608542934 
-0.01543371606294009 
-0.04865084984964749 
0.2121412685008076 
-0.1690248045675367 
-0.01001672449311558 
0.03427028178534123 
-0.1947401329182048 
0.06860927375973065 
-0.05508966556880583 
-0.1068075698789081 
-0.1300841535303541 
0.06097777489239406 
0.1538781821790074 
-0.1464490283105521 
0.07757810294914165 
0.02253979341810212 
0.09976182269068731 
0.1180304272627104 
-0.02930727897440787 
-0.09984560033851711 
-0.07082844404107043 
-0.1948248402703162 
-0.06896036656854564 
0.1912829959543512 
-0.07630459335620615 
-0.04180419693052473 
0.02663694577201035 
-0.09496393859838083 
0.1279615561312124 
-0.1184096904830416 
-0.0460039380339438 
-0.03096404724200259 
0.003213269833223219 
0.2246591706442691 
0.06964099085158545 
0.03711442069907969 
0.1656304660481977 
0.01131392176235441 
0.06745521002373936 
-0.1091306905619605 
-0.077029167700398 
-0.1171382545626922 
-0.02351185648145367 
0.1284913180346768 
-0.2049190715813798 
0.1792771927912475 
0.06394922544069698 
0.09474016510918622 
0.1342081359991195 
-0.187575816387045 
-0.04788782782063689 
0.03141466971181404 
0.2069782023341819 
-0.2063698330440168 
-0.01798620682408069 
0.04781383375099089 
-0.1833260588777034 
0.06959387252243023 
-0.04695374161494854 
-0.04728262088491909 
0.001938089870074277 
-0.008646896083303376 
0.1255705145686997 
-0.1277179878910665 
0.2402705772253108 
0.02488742557253312 
-0.01563740440843378 
0.01678396540271844 
0.07904872695071312 
-0.05173743857754261 
-0.07456446435971328 
-0.05297539154342203 
-0.04970865006410966 
0.056981792474759 
0.008401180532664759 
-0.02114309875600629 
-0.05370384723138259 
-0.08561964519993297 
0.005328860594089369 
-0.06677261775552704 
-0.0766742524237686 
0.06611748067290386 
0.01402092308891897 
0.1444537994911033 
0.004956935094276086 
0.02480249617664296 
0.01382236135647906 
-0.07806917459857633 
0.08124235304782028 
0.06330530391201453 
-0.1553069101375688 
0.07799525341718012 
0.01645284693739664 
0.0938023618663292 
-0.08007469182322306 
0.05843980137694876 
0.04210693292058135 
0.04252034785824164 
0.1421892827254335 
0.07009582720511769 
-0.1618231890258307 
-0.08822731159550455 
-0.01274357134450345 
-0.08487519892733517 
-0.1931765702594966 
0.01761560916024198 
-0.09312480121756986 
0.1402713386145605 
-0.1206263558552935 
-0.107874043637097 
0.07646150423344635 
0.01833914612504312 
-0.02020887868521928 
-0.3425781944586117 
0.04065597824777441 
-0.07662635356298791 
-0.03184372969672796 
0.1357423518155543 
0.1376021752638688 
-0.05726431546303631 
-0.01450057371374565 
0.09184063503921802 
-0.04785082445153404 
0.212702991082304 
0.08884653785458133 
-0.1792326963122537 
-0.09701178456696606 
-0.1204513043541956 
0.05585155153994145 
0.05158520703950116 
-0.09660936562873747 
-0.03488286250137612 
-0.1295053057120427 
0.1239555037191662 
0.08354835322275696 
-0.03158028647202722 
0.09485097521471182 
-0.1494472746421852 
0.04778608219098927 
-0.01792203802755176 
-0.1312762021406428 
-0.1713606471528994 
-0.001403892848412473 
0.1741196122486963 
0.06995979022756656 
-0.1357779969717791 
0.01673627353249871 
-0.04654552047028376 
0.1032959250714765 
0.08370094935781663 
-0.2418750331973275 
-0.0753241580478137 
-0.1393851912944294 
-0.01775084429134487 
-0.1182665711024223 
0.009999060283256271 
-0.008909197022737011 
0.03200325263678741 
-0.05030366870526696 
3.01319529476202e-05 
0.08523303317113784 
0.009359832586203253 
-0.02430738965904735 
-0.08775255146823048 
0.04394845501126585 
-0.05533268401878248 
-0.01500244396267073 
0.06183948662474124 
0.1107927678095154 
0.005671697424633466 
0.01331347774746849 
0.1509973834472748 
-0.01425746389835729 
0.09480440004711871 
0.1491535496464066 
-0.108005893037622 
-0.07458534066320434 
-0.04635116668307952 
0.006797800904473197 
0.06396924310027242 
-0.02862339999031032 
0.004322749961995999 
-0.09477323719554712 
-0.04257825054888431 
0.01260437146155969 
-0.0149623354118687 
-0.06258463045102416 
-0.07607285279384883 
0.063043309055184 
0.06412935845880142 
-0.06705003699451917 
-0.0390772610879238 
0.01088373599667211 
0.1011348030456337 
0.1174506194514906 
-0.1296058563827397 
-0.1047489270543839 
-0.04365023940432538 
0.08327578348809433 
0.1509394263649218 
-0.1135914258798558 
-0.01998981392387792 
-0.1540517751300848 
0.00228019153836175 
-0.1553156582064583 
-0.0232009404644932 
0.008827106365954797 
-0.04389693837293064 
0.01679804080188375 
0.02880288102411674 
0.02009162735319869 
0.05082130697049219 
0.01539234137298382 
-0.02403663886149739 
0.007203009729367091 
-0.02156171026548177 
-0.009987362445171715 
-0.004918410410286376 
0.04402078563199471 
0.03250409106235887 
0.03609638542611295 
0.02548973601932958 
0.01504315315598024 
0.00510260884085369 
0.01573625952548381 
-0.05714821272778959 
-0.04551837121745325 
0.02399906627849306 
0.00537336049165156 
0.08028858719324333 
0.01931243012657856 
-0.01168250629193711 
-0.01437869117136694 
-0.003388856127947982 
-0.01414945224117658 
0.009241428397512715 
-0.0253063918949629 
0.003593888657036797 
0.04806307181146747 
-0.01363799201593121 
0.03594861154492559 
-0.06085574431666146 
0.03427600827677296 
0.07244255613483512 
0.04870039874218848 
-0.04771455795328178 
-0.1417575409244548 
-0.01237778767539482 
0.01464098173901359 
0.001537017012405318 
-0.03899225241898888 
0.03390927711901661 
-0.01579094783478055 
-0.01627652495725726 
-0.05238087233631979 
0.01156446292111548 
-0.03869214010434024 
-0.005256745542042543 
0.01299328835813723 
0.01614585217264248 
0.05074915740804882 
0.0149234473872545 
0.0002626737552824631 
-0.055703316109745 
0.01519008783311151 
0.00345196209721165 
0.005428399768506871 
0.006189641739544571 
0.0202379848338796 
-9.527007714947881e-05 
-0.02550440166434364 
0.0573310324726747 
-0.006563216022181387 
0.04293018297231686 
0.03377862265565354 
-0.01979576753346129 
-0.01006529195880097 
-0.02947121060363539 
-0.02444672464057436 
-0.01740457793509668 
-0.01910656530526231 
0.005568090639229175 
-0.006918274718315783 
0.007281484447899664 
-0.03741103616223242 
0.006175343114529935 
-0.04839684315908836 
-0.02143964841490073 
0.04364470992045388 
-0.02065385949711514 
-0.01442775557869001 
0.03719408738242561 
0.02997975350537898 
-0.01007243648837032 
0.02782764361343734 
-0.008383981783315009 
-0.01348078207106257 
-0.005863572865436523 
-0.01893652795194537 
0.03457115616922034 
-0.04269478461741458 
0.01794066455292887 
-0.008067046712001133 
-0.0235018439228574 
-0.01266158197004682 
0.01243983726211975 
-0.02195782306585412 
-0.005909490420683465 
0.01886395657996625 
0.009309504401832711 
0.02107260366256586 
-0.01470062132940816 
0.00964450123234095 
-0.004271106769839458 
0.03864590355501532 
-0.001450654756226216 
-0.02336391103366001 
-0.0180870509252287 
0.0296693532647266 
0.004411358205223024 
-0.00864724831044735 
0.03201665922841054 
-0.0002465405125443628 
-0.001409120070366106 
0.04041426536916027 
-0.01470171221175693 
-0.02469455758301296 
-0.009505751100798453 
-0.0008758318844508492 
-0.003225299426126552 
-0.01688573755002408 
0.01242385870387653 
0.01020664808053409 
-0.007672534580549764 
-0.02840247974973785 
0.002915075375571802 
-0.03461892560204191 
0.006097719452105761 
0.02854777905258843 
0.01936869746600516 
-0.02139411222013103 
0.05180767399570576 
0.0131693063848104 
0.006079912288927432 
0.02793182006355259 
-0.01695088989687024 
0.008158012535220277 
-0.008637636260956387 
0.00161444836809001 
0.04566551696935461 
-0.002085812989759039 
-0.02129380667866818 
-0.01530661360386446 
0.01935521871892973 
-0.04554637945495037 
-0.02340272089451816 
0.01857055644523553 
-0.01523647847169631 
0.02407902559584275 
0.0291166241970413 
-0.01760208744064104 
0.02196675535430731 
0.01401188454897665 
0.0066163617235353 
-0.01421925713344701 
-0.0006948227503126778 
0.002927099877479545 
0.005235811723946589 
-0.02561506311427934 
0.004972247058138137 
0.01335783265740622 
-0.05773594312214616 
0.01079200346962864 
-0.007874401332423552 
-0.06347259987488423 
-0.005432915187928013 
0.005948103461872971 
0.02350763604871393 
0.003566439996298813 
0.03005245976008214 
0.02551623634595138 
-0.02371231760274637 
0.01794864195200314 
0.02680754107841252 
0.01600597588065833 
0.004852284089607464 
0.0444996947123565 
0.03521644718042462 
-0.01473703077638734 
-0.06938292655753647 
0.04418258926620167 
-0.02875229455210186 
0.003203044048065739 
0.01540188803509793 
-0.03370520230794463 
0.02131226601190174 
-0.01379448486640584 
0.006604328943038204 
0.008176508661832314 
-0.0842109359002694 
0.03955567331649208 
0.0939202699789197 
-0.0380804486484719 
-0.05380896162378694 
-0.02632575248143797 
0.04669239494671461 
-0.09985984357480157 
-0.04181259239008707 
0.02224558472715468 
-0.09141197026651374 
-0.0529382404794103 
-0.01912364521963488 
0.02653492188740375 
0.005202447185819924 
-0.03065273461321676 
0.008751790037474248 
-0.04683538924505904 
-0.05630751162691598 
0.02021235410951234 
-0.009129773015237637 
-0.03668917949832133 
-0.005835048554381961 
0.001686488544602718 
0.01206751113294073 
0.02283216519049849 
0.007855766291629552 
-0.02518449377289331 
-0.02112372562339018 
-0.01431954206506998 
-0.0432733520147303 
-0.05556235134233457 
-0.006921816839539692 
0.1019263389071961 
0.02776320179882801 
-0.04470310812215916 
0.01768932815580772 
-0.04026742205733079 
-0.01325739895105563 
0.06308249913564984 
0.008560873547549768 
0.04994769078336198 
0.1122560955971468 
-0.01594040855858583 
-0.03308644217787445 
-0.002317255562146561 
0.03345341841111711 
0.08790931706868239 
0.005484458274486065 
-0.003598335041443995 
0.04345796585826774 
-0.001699402343957814 
