solver_type L2R_L2LOSS_SVC
nr_class 2
label 1 0
nr_feature 1000
bias -1
w
-0.09028576818698904 
-0.02749826806138842 
-0.03726810088241556 
0.06320600036031553 
-0.02369278337092687 
0.09770254085854659 
0.01736627416999412 
-0.04138230189154393 
0.02755275833958433 
-0.1013485315776979 
-0.007349842787556093 
0.04280527964121878 
0.07546615329887262 
0.0517475701929619 
-0.04814493103119787 
-0.02220135408492798 
-0.05004182833255654 
0.01777415540855021 
0.01300667673321182 
0.08089612188347098 
-0.1252953129101 
0.01512121737630217 
-0.1389126152167212 
-0.07412629707921761 
0.00932906908832716 
-0.04740173304169765 
0.08422447493851769 
0.1205087352151555 
0.1084317738865599 
0.04324351976250659 
-0.01954228149026699 
-0.03270082704512919 
0.01354812193711039 
0.06608725397946283 
-0.004278761750153274 
0.1212488539392447 
0.07549215859873586 
-0.1039543989742432 
-0.08762298399979918 
0.008271332511017727 
-0.1420613930020613 
0.04969358751131512 
0.10606455518605 
-0.05952749699515689 
0.0005091565673159548 
-0.08862363850104846 
0.04897042731000208 
-0.002928399700168577 
-0.1048936156108804 
0.0007948409233713913 
-0.2843178302364465 
-0.2702411749684536 
0.1649617349360894 
0.1166785007206632 
-0.1498201018754602 
0.3704405294692482 
0.03404608501672203 
0.06610011826986392 
0.2849238065987199 
-0.02411791402662571 
-0.07395339286472699 
-0.08801478920237758 
0.3363117970295432 
0.1215408461628958 
-0.0904846378988297 
-0.0337506831748629 
-0.1107250408533637 
-0.04816748791613199 
0.1039611481419198 
0.2336427855749608 
-0.1023638413537307 
0.0754595478382165 
-0.3468149531183202 
-0.08635745533356648 
0.01556886351939132 
-0.006296045108448918 
0.2437520457252498 
0.1107249695439093 
0.3563033186616378 
0.2017430808684812 
-0.01573098108244384 
-0.1336486142705971 
-0.2548100416062332 
0.09552394562221128 
-0.04388186607310805 
0.1245226702633097 
0.1427379158190152 
-0.2755243183710021 
-0.03770896871008142 
0.02155106076267191 
-0.2603276576427124 
0.1371492895955533 
0.1570834178000303 
0.1011261969012433 
-0.1304063157992987 
-0.2741399990762636 
0.02799401187195814 
0.00377574516070066 
-0.02952283823086408 
0.2002502092774172 
-0.1447615513103668 
-0.191581502747726 
0.1926389366276992 
0.1869738794560305 
-0.1346899028124523 
0.347049164589925 
0.07045931466572938 
-0.03532913685468615 
0.06778969836111107 
0.03851598256035801 
0.01714200663413922 
-0.1272879872630964 
0.2527243938220086 
0.02025268033672105 
-0.09747050588875605 
-0.04736360713721027 
-0.01399312775620782 
-0.02821391523275267 
0.1028993068014926 
0.1816234607534607 
0.01417179189119252 
0.073123420140337 
-0.1896794046995743 
-0.1058470212811197 
0.09774280207627498 
0.02510799786583214 
0.1899492717439637 
-0.06514244346311318 
0.2251553746455903 
0.1672990173817216 
0.08911030093958437 
-0.1693475435628731 
-0.2344051582854128 
0.04908317905919307 
-0.04429167235376939 
0.008908727540585691 
-0.1507762877237438 
-0.2531905796343897 
-0.07123096424352962 
-0.003037849305392696 
-0.1399834286323446 
0.05384296268448978 
0.1396575535320179 
0.1050666434043549 
-0.2579531590246447 
-0.1937977540168341 
-0.05533563886701636 
-0.07358826848136589 
0.1977907457515805 
-0.04991419855727234 
-0.1025308172706231 
-0.03536746350962662 
0.09129857158659646 
0.06793597645019228 
-0.07367903417111991 
0.1810738464083518 
0.1002329101130794 
0.09034693345247365 
0.2946039720632881 
0.2209760642055797 
-0.1329577863362652 
-0.09752843303453126 
0.1346507263027266 
0.2737918498747146 
0.006807476953642169 
-0.03083506812971923 
-0.0613112218091403 
-0.008188675343694532 
0.04714472115120492 
0.04381258103805798 
0.1305695599745126 
0.003034284869533711 
-0.171815454145849 
0.1085738508264659 
0.008865128323655639 
0.02796799919786966 
0.04358883358205412 
-0.04973024000838561 
0.1022569883792556 
0.06170079348682828 
0.0934124051308291 
-0.1225656254073406 
-0.2591454551877483 
-0.03648581930504749 
-0.05769759244566713 
-0.04198889799677957 
-0.06529880003117242 
-0.08116450845989787 
0.17295078594751 
-0.1483994960823492 
0.08664806392895437 
0.02295811807479571 
0.008315383128014773 
0.2049883463646301 
-0.158392928159142 
-0.1184914442930013 
-0.07099440980007077 
0.01894758002224736 
0.2709667496125161 
0.0749078891439407 
0.1257300923995497 
-0.2157263051664897 
0.133292212692932 
-0.1312169051655648 
-0.03948270476879341 
0.042757707671332 
-0.01754970045377611 
0.1796369435772524 
0.1536820080618576 
0.2152406508510715 
-0.05663437036145007 
-0.1327788661971943 
0.08209753440149602 
0.0348295305017309 
0.05608245390566213 
-0.01453488299922782 
-0.1011347222301078 
-0.08785865570095637 
0.05287416254826405 
-0.04806585124654389 
0.1651909551222542 
0.01741029529573173 
-0.03564146030400175 
0.04557004419571235 
0.05092716092764184 
0.1030517305826309 
0.0002598446484334983 
-0.2531390092844312 
0.006067755664036506 
0.01872089304174232 
0.05737537415937859 
0.04187918483530231 
-0.2410784766650577 
-0.1442704102408608 
-0.01994148304986452 
-0.1855013403618724 
-0.1969477796668643 
0.1046721036404072 
0.09191917087533412 
0.04682195606961116 
0.2623544121180771 
-0.02068682165255151 
-0.1357329393200687 
0.24074134051059 
-0.09969231962579997 
-0.06064285497272891 
-0.09907149841768972 
-0.07244735003091324 
0.3202810957085639 
0.03453904567759974 
0.3687578986500657 
0.06330892105948377 
-0.04188963177325031 
-0.1916770079888234 
0.1547718326539588 
-0.2514534993234604 
-0.008319633353547594 
0.04666535007442952 
-0.006344822644079137 
0.2949544201643212 
-0.03222381290972833 
-0.03537712655680881 
-0.2795827868425563 
-0.0648475873751925 
0.07815121889715899 
-0.06285043227406364 
0.01321269582787729 
0.04835585003293123 
-0.03000828921121566 
-0.2240104502601269 
0.3020267089640091 
-0.03252078572475266 
0.2585482563863217 
0.1749326473093434 
-0.02846219653448343 
0.01082603873007011 
-0.2191261177990337 
-0.2528966973849673 
-0.2620353901160838 
-0.185820015307756 
0.02342430606972633 
0.1373592947412502 
0.03552022271352125 
-0.185591766640306 
0.0197411420023243 
-0.2411153772284675 
-0.1690651512924042 
0.3013879792085688 
0.1188663888223789 
-0.06618633242377722 
0.4026306919157294 
-0.1001589147315361 
-0.3065493640696816 
0.1483046365175806 
0.004304269814499242 
0.2583669205910532 
-0.1069025933356983 
-0.0768761421369 
0.2515464288508776 
-0.0979339784500961 
0.1912343226534858 
0.09239348263166941 
-0.07437358658637389 
-0.2886526269129159 
0.08198675213138101 
-0.2114310307356458 
-0.09911512391978922 
0.1732866791333869 
0.3214366258945051 
0.2614213816368886 
-0.1092530190629853 
0.02305481287494899 
-0.1816783255838116 
0.1290834540616904 
0.1667509108244055 
0.02699967937304712 
-0.1093465780855216 
0.004389863369451706 
-0.03098518291268798 
-0.1905576594618817 
0.1666030199432085 
-0.0595228602659358 
-0.01846302916511276 
0.1805008583949341 
-0.1099313511575675 
-0.001489786320785147 
-0.1694339775384479 
-0.1104622215197322 
-0.1297063438196054 
-0.125019159528383 
-0.05362558393848894 
0.1290056212949648 
-0.006820067878296041 
-0.1439969960620293 
0.001687301167416422 
-0.1964820633058519 
0.1876405659486006 
0.3073241918818469 
0.2445865050026946 
-0.07180522599461413 
0.252226966519962 
-0.009579004842669327 
-0.3253869641024512 
0.11443606129981 
0.1833615346368531 
0.01888241334056452 
-0.01618236076234214 
-0.03059051562156108 
-0.05226765782531569 
0.1767397999842796 
0.1687532517643653 
-0.1824423747603306 
0.1105441483996999 
-0.1239631498507249 
0.05706177801102331 
-0.01861098987846449 
-0.1433115865084761 
-0.07970025972246565 
-0.1810731534210488 
-0.01767807293791769 
0.1190507061873598 
-0.07246317979851211 
-0.09104562395973897 
-0.3863474210497191 
-0.04226614060332043 
-0.06616066880676247 
0.01384994246336323 
0.02485092151750556 
0.05266879502323671 
0.01534905718090846 
0.1427463138543857 
0.07088261315865224 
0.09614030863572684 
-0.01049765561235224 
0.02226322656653605 
-0.03534552575091127 
0.01477332148986675 
-0.09717823682091395 
-0.03316422036538499 
-0.02312347018172152 
-0.06647927601597993 
0.1102952474933934 
0.08336375653201925 
-0.01833131704918774 
0.03353345410577006 
-0.1190509424821477 
-0.02154147797009488 
0.0142968604311392 
-0.1153369535546263 
0.2513183248210795 
-0.0283988004894073 
-0.01014532305418612 
-0.1909109412147312 
-0.01049769219471781 
-0.02052941948509959 
0.1054496344089993 
-0.03173600598197605 
-0.2343141111143821 
-0.09753824944453006 
-0.07921971538224874 
-0.1129675344216009 
-0.001956125889243897 
0.1280943127051877 
0.01312602688864234 
-0.08994169379936964 
0.1937934245343041 
-0.1566748385897304 
-0.09124316845076237 
-0.1414660316122279 
-0.2614999950107033 
0.1026753199136235 
-0.03921680105222298 
0.07546825903724412 
-0.338808855609173 
-0.01690022427725841 
0.02506300523070441 
-0.0247630879137332 
-0.07415792568043615 
0.04321125037510039 
0.1514089249099328 
-0.1674312720357237 
0.05903898141002828 
-0.2005245623510649 
-0.1766015909434763 
0.009658726355296618 
-0.004110604523540527 
0.1561317217808087 
0.1042330322607275 
0.119164418238574 
0.1106382388177802 
-0.09876467217865925 
-0.0001328589141926934 
0.08715022961899929 
0.0885331627284575 
-0.01152396518607262 
0.05047201530000776 
0.2361249580896112 
-0.2549274669870739 
-0.07680934127125644 
0.2592811091933496 
-0.4011663945268316 
-0.01704535666314625 
-0.02750717859100375 
-0.1827756226237778 
0.05412833175864497 
-0.09700264730671865 
0.03379848626109538 
-0.1182858472359822 
-0.4532217127096252 
0.1063697186618411 
0.08594056579276471 
0.4306526560783592 
-0.1970524949131381 
0.6250871678850751 
0.0388386857382506 
-0.3554779701386163 
-0.01431315554029113 
-0.01848550118786111 
-0.2323699069306196 
-0.3055623823790681 
0.01786123767660547 
0.2417026289336291 
0.2903502189039588 
0.2449960759717997 
0.1510984561171939 
0.1682115190412826 
0.01103041676810639 
-0.1692662998302271 
-0.1080055947425367 
-0.05320156489314981 
-0.1737808015401198 
-0.07965628417024929 
0.004077350958745913 
0.1192552912947745 
0.2271216541464972 
0.1658985468503029 
-0.06187173041529115 
0.3105686210622482 
-0.3858900949044506 
-0.03667421537581425 
0.1127160446762232 
0.1255772701945625 
0.09396067480031928 
-0.06153870620807295 
0.09482588509018543 
0.09232970922638882 
0.01499519784274141 
-0.04012671870973301 
0.1597670517084682 
-0.08553612193328131 
-0.1537043177905064 
-0.02240003753134415 
0.0572578380304229 
-0.3393452264370595 
0.3762178268470788 
0.1789042524353233 
0.2211825871096249 
0.06843593281148343 
-0.0419377256656243 
0.07130705981905631 
-0.01454059538799066 
0.08916192551213714 
-0.1172487509035586 
0.05185709377965884 
0.06318785846325348 
-0.1888567102832114 
0.04057993727938446 
-0.1017095819225048 
-0.2319203532734167 
-0.2223744404276156 
0.01609661026813268 
0.08893391375953312 
-0.08729597670785844 
-0.06965678227074526 
-0.03540401718722017 
0.008492934881789767 
0.08038871487168593 
0.01704641516199546 
-0.08556914008239444 
-0.03762257349334094 
-0.2230140582818937 
-0.03379161206326903 
0.1680932964437873 
-0.1004511639178579 
0.002308429904778613 
-0.02503022443842438 
-0.04295658874648305 
0.1658733660523476 
-0.1047819951066936 
-0.06758526315534449 
-0.04184177563546283 
0.04128535611140847 
0.1977435715832368 
0.07340631653236358 
0.02138291353122555 
0.2320424087131115 
0.01526704106422378 
-0.04707471539012051 
-0.07772514210857535 
-0.02480791818199471 
-0.01843151178600536 
0.002183597984073283 
0.05156422331597356 
-0.179313500733086 
0.1336955724028123 
0.1985270497735765 
0.09361183585964082 
0.01755852486971428 
-0.1535563863503542 
-0.01527663890998678 
-0.04740689507695576 
0.2121653051723703 
-0.1697197856203482 
-0.01019000227843246 
0.03488923689596345 
-0.1955278748358591 
0.06811935404761778 
-0.05487775804410647 
-0.1068926481902328 
-0.1301327403916056 
0.06036364109260389 
0.1539649180842102 
-0.1465943179190831 
0.07756762673357001 
0.02288586541632266 
0.09935338283282649 
0.1168562676845113 
-0.02900460099232835 
-0.09998053441922776 
-0.07139801055459022 
-0.1941998866632639 
-0.06901259634608876 
0.1903650392456682 
-0.07555603199382648 
-0.04155686019329017 
0.02627437474997112 
-0.09532340122160227 
0.127814217912974 
-0.1187794657054558 
-0.04680385605183412 
-0.03124684035117651 
0.00438380752854534 
0.2247959623685983 
0.06917998299537816 
0.03717126650336641 
0.1650834133966057 
0.01146171988343032 
0.06801582471868259 
-0.1090206907834122 
-0.07615063927499877 
-0.1157305796095006 
-0.02352985404742606 
0.1273977967140258 
-0.204799522458183 
0.179904524096066 
0.06461449383363282 
0.09487494351041953 
0.1341247568101525 
-0.1873055002692971 
-0.04826806177070589 
0.03032266312126771 
0.2063804162982075 
-0.206409324184169 
-0.01810857755661541 
0.04755011523326343 
-0.1828071262737114 
0.07010180366108962 
-0.04727280734967792 
-0.04719921923449278 
0.001455111390347038 
-0.009081897917822096 
0.125546839659339 
-0.1272090389854826 
0.241245674141972 
0.02470092487058895 
-0.01591079662437154 
0.01645046653233962 
0.07933151489088393 
-0.05163581911074835 
-0.0738616066472815 
-0.05323650591921163 
-0.04967498858441075 
0.05612234596118309 
0.008911323595429066 
-0.02144527514034704 
-0.05396972593272074 
-0.08516213075994712 
0.006404234896325418 
-0.06592706757889315 
-0.07649489819980597 
0.06633259288493834 
0.01363277651680048 
0.1440617769490432 
0.005365412970256651 
0.02461231102573425 
0.01445466924068781 
-0.07823977874529342 
0.08018834630766269 
0.06403552760105354 
-0.1551712637244811 
0.07683517159638718 
0.01630200966833066 
0.09461087900413487 
-0.07979893394663345 
0.05802046338741686 
0.04159363323272515 
0.04259870149286404 
0.1423624123965374 
0.07057549419080944 
-0.1616138775595732 
-0.0889265896116907 
-0.01368041714446902 
-0.0846437323976109 
-0.1936388969342031 
0.01754243706696493 
-0.09235230290624882 
0.1401867179604879 
-0.1215327728096016 
-0.1083761135240664 
0.07557506819237958 
0.01862476560815204 
-0.02005218348861106 
-0.3417109278876816 
0.04020339932877208 
-0.07683084798597277 
-0.03192189019725114 
0.1357892760895063 
0.1378067547372117 
-0.05697154428598859 
-0.01390014793974885 
0.09104492356519561 
-0.04767636792614886 
0.2123428627501051 
0.08836167117102812 
-0.1792226171636316 
-0.09718386598863918 
-0.119791585769681 
0.05596198777935654 
0.05218928120699039 
-0.09614841018655115 
-0.03459121452858614 
-0.1297744716121356 
0.1237365709523773 
0.08410714468049758 
-0.03161493035279328 
0.09476968716882188 
-0.1496362294332605 
0.04715002491377297 
-0.01725108774076092 
-0.1308182049843694 
-0.1721300385240467 
-0.002056450351788752 
0.1742941996597057 
0.0696656817454841 
-0.1359931695853943 
0.0158252472071882 
-0.04649471041618979 
0.1030454059929108 
0.0836148271681547 
-0.2416100626593432 
-0.07556839287046008 
-0.1392773632148574 
-0.01751122790382201 
-0.1186791301476425 
0.009802354656202644 
-0.007960053092318007 
0.03220630289122437 
-0.05043542346855502 
0.0008557758701747435 
0.08565243951684424 
0.009364914111813517 
-0.0243697071018298 
-0.08798153434045128 
0.04411705189624871 
-0.05552521520334294 
-0.01531519941670779 
0.06181147063563726 
0.1112070768597503 
0.005923515814524462 
0.01362361728136079 
0.1507401564494777 
-0.0140637651164836 
0.09424617177765701 
0.1485264960033583 
-0.1081811921316653 
-0.07500524464469827 
-0.04591936397932936 
0.006795562217062069 
0.06473085932303872 
-0.02833652912848993 
0.004379828253476211 
-0.09520859046866366 
-0.04247642664407079 
0.0127387429612692 
-0.01511537635859039 
-0.06222384188258043 
-0.0755384212058919 
0.06235209366735129 
0.06362351643455913 
-0.06726168843828116 
-0.03903563042986576 
0.01117960745298835 
0.1011692774780125 
0.1175417560424416 
-0.1300867030106787 
-0.1051118371208153 
-0.04380540182638096 
0.08297853126707527 
0.1504781001801051 
-0.1134820494827392 
-0.0204960282280827 
-0.1535658824226839 
0.000893743715652727 
-0.1553130879931168 
-0.02277749048242077 
0.008643726114877841 
-0.04351702472674337 
0.01683101179069219 
0.02888126326541409 
0.01889733128930307 
0.05046514017379915 
0.01656308469615292 
-0.02302004118738188 
0.008754715102079948 
-0.02116014080299675 
-0.009401934091603739 
-0.005651382133813678 
0.04366440183373495 
0.03231636239007391 
0.03597398904900367 
0.02418737553611131 
0.01469898616195711 
0.004617780933470601 
0.0159367227332822 
-0.05711367028073332 
-0.04512744923533166 
0.02408035020032561 
0.006126086064217454 
0.07990925528007983 
0.01940959862199072 
-0.01123202844071287 
-0.01414444468620829 
-0.003423613750277109 
-0.01414631923207727 
0.009512515994298806 
-0.02567669224421905 
0.003759557471641182 
0.04865894350764145 
-0.01310357224000818 
0.03581988386044865 
-0.06096558041030177 
0.03360528472762176 
0.07307707160233901 
0.04806864146601563 
-0.04653986104221403 
-0.1425549181703271 
-0.0117213405856372 
0.01510552258051614 
0.001600033314669066 
-0.03831188584258716 
0.03504382085762552 
-0.01579210815485698 
-0.01606995008447241 
-0.05200078249126493 
0.01119985999735086 
-0.03917279439168486 
-0.006559961162603031 
0.01357636274401162 
0.01429080401850991 
0.04939069051662365 
0.01538384631950797 
1.649149429264001e-05 
-0.05493140297145576 
0.0135824902576385 
0.004156262056188523 
0.006052346588025791 
0.005448751453167004 
0.01922713578347387 
-0.0001645848772018315 
-0.02582952279094727 
0.05666517514198444 
-0.006577260508706471 
0.04225689816372134 
0.03287969417638057 
-0.0186391466527028 
-0.009215550952810079 
-0.0292874917950146 
-0.02549169016973173 
-0.01812742819322716 
-0.01906823989161803 
0.005544919429846899 
-0.005906461840725442 
0.007203331367616224 
-0.03791480675100288 
0.00626562700181438 
-0.04902836907621716 
-0.02208492823776341 
0.04424337720594675 
-0.02025296299961192 
-0.01290073846645791 
0.03789536689065791 
0.02958894074316907 
-0.01052358457905943 
0.02737326698395227 
-0.007710057182215573 
-0.0138610263119496 
-0.005862278721171917 
-0.01896656801422628 
0.03438316707872496 
-0.04332071129182294 
0.01917639772522848 
-0.00932372181438538 
-0.023332806526607 
-0.01375505794613724 
0.01326136423468089 
-0.02308543167519666 
-0.005709810456077595 
0.01879405415335979 
0.009170077562099378 
0.02193686591317047 
-0.01413037848338897 
0.009884873968984199 
-0.005649651567726642 
0.03734517354430875 
-0.002068200041107573 
-0.02403296068693477 
-0.01702534669470661 
0.03027842355150665 
0.004468681430113679 
-0.00893216944872206 
0.03239136886575233 
9.58739989584359e-05 
0.00117994550124812 
0.04009756811704289 
-0.01521333503010386 
-0.02515093670590151 
-0.009958610458062796 
-0.001076431859495539 
-0.003386010659476627 
-0.01732631753419541 
0.01172787675130666 
0.01093527370087486 
-0.006548204099025833 
-0.02831046517631128 
0.003379081446203023 
-0.03382226944244176 
0.006223039289094246 
0.02967075181465441 
0.01798399058217106 
-0.02157389946712595 
0.05233591725904778 
0.01349117286549162 
0.005769200848352082 
0.02816533774121115 
-0.01694524124716538 
0.009890679199609778 
-0.008639927289294807 
0.001718322562445418 
0.04546195919510224 
-0.002041497470017967 
-0.02150638425470821 
-0.01622481576919464 
0.01988902093256376 
-0.04579187476565562 
-0.02373793657832545 
0.01854879689432124 
-0.01552521944262536 
0.0241994645333704 
0.02904889508641469 
-0.0179235182351909 
0.02244402014267152 
0.01395944527772194 
0.006899713622040463 
-0.01475440502514447 
-0.0008002867226482492 
0.002920235615842436 
0.005385835193510415 
-0.02579934046416646 
0.005107722010485939 
0.01370938868712577 
-0.05809231249288782 
0.01106979630461822 
-0.007877399564818669 
-0.06418548410707417 
-0.005245831463750066 
0.005971650930322841 
0.02387264703213628 
0.003473084473977072 
0.03072319267595568 
0.02581830778547742 
-0.02410165372281135 
0.01834572945885671 
0.02709401793958263 
0.01664977561673408 
0.004974895357367337 
0.04511256818379033 
0.03520461971206625 
-0.01479995804939177 
-0.07043057338599273 
0.04519616955361994 
-0.02941252066698309 
0.00353691251256112 
0.01562680235790007 
-0.03400895442533959 
0.0214703371175053 
-0.0138157714918566 
0.006829484968520315 
0.007988667817277879 
-0.08484481664335561 
0.03959046982052777 
0.09496350028183777 
-0.03713568088720847 
-0.05380381766946769 
-0.0257210160811891 
0.04696907524825259 
-0.1007323829690037 
-0.04186127863179465 
0.02265935705435309 
-0.09151335938033323 
-0.05219591646962405 
-0.01927629625462263 
0.02632822856240737 
0.00469278114104847 
-0.03093360480698556 
0.00927378183513409 
-0.04631183413469109 
-0.05600419782405783 
0.01987794983217861 
-0.009527891540570899 
-0.03759165636633401 
-0.004828056863594549 
0.001352667455360733 
0.01289516473914774 
0.02365690947578138 
0.008127090953766288 
-0.02463651589918962 
-0.02203582860053036 
-0.01474749411755456 
-0.0446020398475736 
-0.05612959687729326 
-0.007000684740898315 
0.1021934671754406 
0.02762808986566343 
-0.04537628054715589 
0.01767957696002417 
-0.04061588474792897 
-0.01364422334588614 
0.063918954883961 
0.008912201152306773 
0.04969262528545695 
0.1134946928318185 
-0.01629918239826529 
-0.03386768208883036 
-0.00206719006295394 
0.0338259631295957 
0.08865390412363301 
0.005264383691958297 
-0.002976322226602796 
0.0440759273905287 
-0.001989505267173732 
